tree
version=v4
num_class=1
num_tree_per_iteration=1
label_index=0
max_feature_idx=63
objective=lambdarank
feature_names=1 2 3 4 5 6 7 8 9 10 11 12 13 14 15 16 17 18 19 20 21 22 23 24 25 26 27 28 29 30 31 32 33 34 35 36 37 38 39 40 41 42 43 44 45 46 47 48 49 50 51 52 53 54 55 56 57 58 59 60 61 62 63 64
feature_infos=[0:2.45481e-05] [9.2589599999999995e-06:0.00039069499999999999] [0.00065761599999999997:0.022637899999999999] [4.3841099999999999e-06:0.00015091900000000001] [5.0045399999999998e-08:9.2163899999999997e-06] [7.9572200000000004e-06:0.00031431699999999999] [0.00053693700000000003:0.025719100000000002] [3.5795799999999999e-06:0.000171461] [5.0045399999999998e-08:5.1495999999999998e-06] [3.0527699999999998e-06:0.000120587] [0.00021688999999999999:0.0097991899999999993] [1.44593e-06:6.5327900000000002e-05] [5.0045399999999998e-08:7.0912199999999997e-06] [7.9572200000000004e-06:0.00031431699999999999] [0.000550707:0.026513999999999999] [3.67138e-06:0.00017676000000000001] [5.0045399999999998e-08:5.50487e-06] [3.0460199999999998e-06:0.000120587] [0.00020387700000000001:0.010052200000000001] [1.3591799999999999e-06:6.7014900000000001e-05] [1.0009100000000001e-07:3.9536800000000002e-06] [2.0018200000000001e-07:7.9073600000000005e-06] [2.2685e-05:0.00094180700000000002] [1.5123299999999999e-07:6.2787200000000003e-06] none [4.14472e-06:0.00031561499999999999] [5.2256499999999997e-05:0.0049799900000000001] [3.48376e-07:3.31999e-05] none [1.27619e-07:0.00025825199999999999] [1.16549e-06:0.00041280199999999998] [7.7699200000000004e-09:2.7520099999999999e-06] [5.0045399999999998e-08:1.9768400000000001e-06] [1.3671699999999999e-07:3.0667399999999997e-05] [9.0160100000000004e-06:0.00038766700000000001] [6.0106699999999994e-08:2.58444e-06] [5.0567300000000002e-08:6.9711299999999996e-06] [2.1636100000000002e-06:0.00028505000000000002] [0.000115839:0.0073090500000000001] [7.7226300000000004e-07:4.8727000000000003e-05] [5.3850799999999999e-08:7.6090700000000007e-05] [4.7370000000000002e-05:0.0023922399999999999] [0.0028966899999999999:0.12690899999999999] [1.9311299999999999e-05:0.00084606099999999995] [5.0567300000000002e-08:3.0826200000000001e-06] [4.0459699999999998e-07:0.000132354] [3.4558299999999997e-05:0.00137874] [2.3038900000000001e-07:9.1915899999999995e-06] none none none none [6.6002199999999996e-05:0.0017721099999999999] [0.0071170000000000001:0.0139715] [0.69762400000000002:0.76019999999999999] [0.0046508299999999999:0.0050679999999999996] [6.6002199999999996e-05:0.0022409999999999999] [0.011188200000000001:0.0164773] none none [1.6500599999999999e-05:0.00056024999999999998] [0.0027970500000000001:0.00411933] none none
tree_sizes=1359 1363 1357 1370 1372 1380 1361 1338 1350 1351 1373 1367 1360 1362 1360 1358 1356 1373 1347 1339 1362 1344 1368 1366 1359 1371 1373 1354 1364 1366 1367 1364 1367 1351 1367 1368 1377 1355 1370 1375 1369 1381 1375 1364 1367 1367 1352 1363 1359 1368 1361 1360 1370 1369 1358 1355 1365 1372 1359 1370 1359 1368 1361 1361 1366 1361 1362 1367 1368 1367 1362 1360 1368 1368 1362 1361 1358 1365 1364 1360 1358 1352 1356 1354 1373 1377 1368 1354 1362 1362 1376 1369 1368 1361 1360 1365 1363 1354 1360 1374 1375 1361 1361 1363 1355 1366 1367 1356 1357 1359 1360 1364 1363 1355 1350 1353 1357 1359 1368 1364 1369 1358 1372 1367 1355 1365 1370 1371 1372 1377 1353 1373 1371 1376 1364 1361 1370 1367 1372 1360 1367 1343 1361 1359 1368 1372 1359 1355 1368 1355 1367 1365 1361 1365 1366 1366 1352 1364 1362 1361 1366 1374 1355 1359 1358 1366 1367 1347 1354 1366 1369 1358 1359 1361 1362 1369 1365 1370 1382 1371 1364 1371 1368 1361 1352 1361 1367 1367 1366 1377 1371 1372 1363 1363 1370 1361 1362 1359 1351 1366 1371 1361 1370 1369 1368 1366 1360 1357 1370 1366 1360 1365 1373 1358 1369 1365 1381 1378 1373 1369 1351 1362 1356 1360 1364 1360 1370 1378 1355 1360 1351 1368 1357 1349 1368 1371 1364 1358 1358 1364 1357 1374 1360 1369 1364 1366 1356 1356 1348 1378 1377 1362 1378 1350 1356 1367 1361 1349 1359 1362 1352 1374 1372 1360 1370 1376 1349 1370 1363 1366 1364 1362 1366 1355 1368 1359 1372 1361 1366 1362 1364 1361 1360 1363 1361 1366 1366 1353 1360 1367 1364 1362 1357 1359 1360 1361 1357 1355 1367 1360 1355 1368 1365 1363 1363 1365 1367 1369 1369 1360 1365 1367 1366 1369 1364 1359 1361 1372 1354 1362 1374 1366 1367 1370 1370 1367 1374 1372 1365 1357 1365 1361 1361 1353 1369 1372 1351 1355 1358 1364 1364 1356 1365 1356 1355 1359 1360 1366 1351 1346 1364 1356 1357 1366 1368 1369 1357 1361 1365 1363 1352 1363 1357 1359 1371 1373 1366 1367 1369 1365 1365 1367 1369 1364 1364 1364 1360 1355 1369 1374 1362 1366 1365 1358 1360 1359 1370 1352 1349 1363 1370 1366 1368 1363 1363 1363 1359 1363 1358 1373 1373 1371 1367 1368 1364 1378 1370 1368 1371 1351 1364 1356 1361 1368 1355 1371 1369 1362 1364 1365 1340 1363 1371 1364 1367 1346 1364 1350 1368 1346 1360 1355 1357 1374 1358 1360 1360 1366 1363 1371 1363 1367 1361 1358 1364 1363 1350 1363 1373 1372 1378 1363 1375 1376 1365 1363 1366 1364 1360 1363 1373 1374 1363 1371 1373 1362 1373 1360 1369 1368 1372 1360 1373 1367 1371 1375 1367 1358 1374 1359 1364 1362 1365 1357 1357 1361 1387 1367 1375 1363 1365 1357 1369 1371 1362 1362 1349 1376 1372 1364 1359 1358 1364 1365 1366 1364 1364 1361 1357 1359 1377 1369 1376 1360 1359 1368 1354 1365 1364 1358 1365 1338 1370 1366 1366 1358 1359 1361 1362 1357 1358 1366 1356 1371 1367 1352 1355 1379 1359 1348 1367 1359 1365 1365 1364 1359 1367 1368 1362 1360 1361 1342 1368 1360 1370 1354 1368 1364 1379 1361 1370 1364 1368 1366 1367 1360 1357 1361 1363 1365 1363 1353 1356 1342 1359 1359 1365 1366 1354 1363 1363 1360 1353 1376 1370 1365 1366 1370 1370 1367 1362 1365 1371 1376 1370 1379 1372 1363 1350 1360 1370 1367 1367 1366 1365 1369 1354 1360 1362 1372 1362 1365 1366 1362 1363 1355 1362 1354 1364 1371 1366 1362 1357 1363 1353 1370 1373 1366 1359 1368 1367 1371 1367 1367 1363 1364 1371 1364 1368 1364 1372 1369 1370 1373 1374 1373 1362 1364 1359 1356 1359 1349 1362 1367 1370 1361 1371 1359 1358 1355 1362 1364 1370 1365 1368 1361 1347 1375 1366 1358 1350 1357 1373 1365 1372 1363 1368 1362 1367 1361 1351 1359 1363 1368 1362 1368 1369 1366 1361 1370 1364 1371 1379 1362 1359 1370 1369 1369 1363 1358 1373 1372 1337 1369 1346 1360 1359 1361 1348 1355 1365 1364 1364 1364 1367 1364 1367 1371 1370 1369 1362 1365 1363 1359 1359 1362 1362 1379 1359 1370 1347 1346 1365 1363 1366 1371 1363 1374 1361 1368 1363 1353 1348 1360 1358 1345 1361 1370 1366 1365 1388 1381 1363 1371 1369 1359 1359 1363 1357 1370 1360 1363 1363 1366 1367 1367 1373 1369 1359 1367 1370 1369 1370 1369 1366 1367 1350 1358 1360 1350 1364 1361 1373 1357 1369 1370 1365 1382 1381 1375 1378 1368 1364 1365 1355 1373 1367 1368 1370 1366 1359 1364 1358 1359 1370 1360 1360 1357 1363 1359 1362 1361 1370 1373 1368 1374 1367 1369 1363 1360 1358 1362 1370 1370 1352 1359 1356 1356 1367 1363 1367 1355 1367 1368 1368 1369 1357 1370 1351 1364 1360 1370 1355 1351 1370 1366 1376 1359 1382 1378 1371 1357 1374 1369 1370 1355 1352 1366 1368 1359 1376 1370 1368 1369 1361 1365 1375 1367 1370 1369 1366 1372 1375 1367 1365 1362 1355 1366 1362 1360 1355 1352 1362 1369 1368 1362 1363 1360 1360 1368 1368 1363 1353 1354 1368 1368 1356 1355 1353 1358 1357 1370 1360 1363 1366 1367 1356 1366 1360 1362 1358 1358 1368 1365 1356 1360 1367 1365 1368 1365 1365 1359 1357 1353 1360 1361 1363 1363 1356 1374 1362 1349 1346 1370 1373 1367 1365 1343 1361 1379 1368 1362 1350 1359 1363 1357 1360 1353 1354 1356 1368 1368 1355 1360 1353 1357 1357 1359 1365 1360 1356 1369 1359 1367 1373 1358 1366 1364 1363 1356 1372 1362 1365 1372 1366 1364 1375 1365 1379 1371 1377 1362 1365 1370 1365 1365 1381 1355 1364 1370 1356 1360 1362 1362 1361 1349 1372 1366 1369 1359 1366 1363 1369 1364 1369 1371 1360 1368 1361 1343 1365 1353 1361 1369 1370 1366 1371 1373 1365 1370 1361 1370 1375 1343 1352 1346 1364 1366 1366 1355 1361 1361 1365 1369 1368 1360 1360 1361 1367 1365 1365 1366 1360 1369 1372 1360 1367 1360 1356 1355 1381 1366 1367 1364 1361 1371 1364 1366 1358 1357 1355 1361 1361 1361 1367 1365 1365 1354 1379 1356 1380 1348 1358 1348 1375 1365 1359 1359 1355 1361 1368 1367 1363 1369 1368 1365 1352 1380 1366 1357 1355 1372 1355 1353 1359 1365 1369 1365 1357 1359 1369 1362 1360 1365 1373 1368 1366 1369 1356 1373 1365 1369 1371 1363 1359 1373 1354 1363 1355 1360 1356 1376 1360 1375 1359 1367 1367 1379 1358 1363 1372 1381 1371 1365 1364 1369 1364 1365 1358 1368 1368 1367 1361 1379 1357 1370 1364 1369 1377 1363 1364 1370 1340 1345 1344 1368 1361 1374 1359 1361 1366 1365 1375 1356 1369 1372 1360 1358 1361 1360 1369 1363 1366 1360 1369 1375 1358 1359 1367 1362 1354 1364 1364 1363 1373 1368 1355 1374 1371 1358 1365 1366 1363 1361 1362 1355 1356 1362 1348 1360 1349 1361 1370 1373 1372 1362 1351 1350 1369 1356 1367 1366 1347 1357 1351 1364 1373 1369 1352 1352 1349 1357 1355 1354 1368 1363 1370 1369 1356 1359 1377 1363 1374 1361 1357 1381 1358 1357 1350 1361 1370 1355 1360 1365 1368 1355 1361 1363 1357 1349 1374 1368 1370 1373 1370 1369 1373 1367 1362 1372 1363 1366 1363 1365 1359 1371 1353 1373 1371 1356 1358 1359 1345 1352 1364 1360 1372 1356 1368 1373 1363 1367 1356 1353 1360 1366 1369 1360 1364 1367 1354 1352 1360 1360 1373 1369 1371 1370 1374 1349 1378 1363 1367 1369 1372 1343 1344 1345 1376 1376 1374 1355 1347 1357 1361 1365 1374 1354 1362 1374 1360 1367 1372 1359 1362 1363 1364 1365 1366 1361 1347 1374 1369 1362 1375 1367 1369 1371 1358 1361 1373 1372 1359 1357 1369 1361 1363 1366 1353 1356 1356 1363 1363 1355 1357 1359 1357 1362 1350 1359 1364 1362 1361 1355 1358 1356 1350 1353 1374 1366 1366 1365 1362 1373 1373 1361 1373 1356 1353 1365 1358 1367 1371 1348 1359 1371 1355 1360 1353 1366 1371 1358 1365 1371 1360 1362 1370 1373 1366 1366 1353 1368 1370 1373 1352 1342 1365 1363 1359 1359 1368 1357 1371 1362 1374 1361 1362 1358 1368 1364 1368 1345 1364 1362 1362 1376 1361 1376 1356 1372 1363 1362 1361 1359 1372 1372 1363 1353 1363 1367 1368 1375 1360 1354 1345 1351 1364 1378 1371 1362 1361 1367 1374 1366 1374 1365 1365 1376 1352 1353 1364 1364 1350 1364 1357 1371 1368 1361 1369 1366 1369 1362 1362 1366 1360 1361 1360 1365 1361 1359 1358 1369 1359 1374 1367 1354 1366 1365 1376 1366 1362 1350 1349 1350 1356 1351 1354 1371 1362 1360 1365 1382 1370 1354 1367 1354 1363 1357 1360 1359 1362 1360 1377 1373 1361 1366 1358 1364 1369 1348 1360 1368 1360 1359 1361 1362 1364 1367 1359 1345 1357 1362 1366 1362 1369 1362 1354 1361 1370 1365 1345 1364 1355 1365 1364 1347 1348 1356 1369 1369 1372 1370 1358 1352 1358 1364 1367 1360 1356 1353 1361 1369 1373 1359 1350 1365 1349 1364 1358 1366 1357 1359 1357 1362 1375 1367 1376 1377 1366 1363 1356 1353 1356 1356 1354 1369 1354 1364 1354 1353 1354 1354 1364 1364 1366 1360 1360 1372 1342 1358 1359 1357 1370 1361 1356 1369 1362 1363 1367 1365 1364 1360 1345 1353 1360 1368 1371 1354 1344 1351 1370 1366 1376 1369 1380 1357 1381 1364 1365 1369 1371 1369 1359 1366 1367 1367 1345 1356 1358 1366 1358 1360 1372 1366 1359 1368 1370 1362 1373 1364 1366 1366 1367 1370 1364 1363 1369 1367 1373 1359 1366 1362 1359 1356 1352 1349 1354 1354 1367 1364 1366 1367 1346 1372 1371 1358 1365 1363 1349 1362 1360 1367 1373 1359 1365 1343 1352 1350 1360 1371 1372 1353 1360 1361 1355 1366 1373 1370 1371 1366 1349 1380 1374 1356 1360 1362 1360 1365 1360 1361 1352 1355 1356 1371 1355 1373 1367 1373 1358 1364 1366 1364 1367 1370 1362 1360 1374 1362 1363 1368 1364 1373 1357 1358 1358 1353 1351 1363 1373 1345 1371 1365 1370 1368 1364 1352 1367 1345 1361 1360 1351 1357 1364 1372 1367 1366 1372 1356 1370 1359 1366 1369 1363 1357 1344 1359 1364 1350 1361 1357 1357 1362 1361 1348 1357 1351 1365 1366 1363 1356 1359 1354 1363 1363 1363 1359 1360 1345 1352 1351 1359 1364 1380 1362 1372 1378 1362 1368 1359 1362 1368 1368 1364 1374 1371 1362 1375 1360 1373 1371 1365 1363 1361 1365 1359 1356 1354 1343 1350 1360 1357 1378 1354 1370 1354 1362 1360 1351 1366 1364 1354 1358 1353 1365 1358 1356 1357 1359 1354 1363 1372 1375 1352 1366 1361 1374 1372 1367 1373 1375 1375 1365 1364 1362 1362 1370 1363 1359 1370 1368 1366 1374 1365 1374 1367 1376 1362 1359 1358 1351 1352 1374 1365 1364 1368 1348 1365 1352 1355 1365 1354 1363 1367 1357 1349 1349 1350 1383 1349 1352 1355 1366 1354 1363 1365 1368 1365 1373 1357 1360 1365 1365 1355 1365 1353 1376 1364 1369 1372 1372 1362 1364 1363 1363 1361 1361 1362 1361 1355 1364 1351 1357 1359 1368 1359 1368 1374 1366 1362 1350 1355 1356 1354 1356 1355 1368 1370 1355 1375 1369 1369 1371 1368 1364 1353 1351 1347 1370 1372 1368 1367 1373 1369 1364 1360 1368 1348 1361 1364 1366 1368 1359 1369 1369 1368 1367 1368 1370 1377 1353 1371 1379 1366 1377 1371 1373 1368 1350 1347 1344 1362 1367 1364 1360 1358 1368 1360 1348 1364 1363 1364 1359 1365 1362 1358 1359 1364 1358 1367 1371

Tree=0
num_leaves=11
num_cat=0
split_feature=29 27 42 37 18 53 39 30 26 14
split_gain=8.85516 10.0982 6.29333 4.89082 13.8137 5.72631 4.96472 5.22757 4.87309 4.73783
threshold=5.9267400000000008e-07 7.3665800000000008e-07 0.0082647500000000013 4.6185050000000011e-06 0.00034007350000000004 0.008762215000000002 1.2508650000000003e-06 3.6189950000000005e-06 8.9571000000000014e-05 0.00097951400000000012
decision_type=2 2 2 2 2 2 2 2 2 2
left_child=1 9 -3 4 5 -2 7 8 -5 -1
right_child=3 2 -4 6 -6 -7 -8 -9 -10 -11
leaf_value=-9.4298744776468048e-05 -0.0043465204902286515 -0.001838632619940987 0.001729462562763559 0.0015634570232098306 0.0019748676488622946 0.00020209639135256288 5.1831073464446798e-05 0.0025446511382735183 -0.0037646956968947331 0.0030257861654401164
leaf_weight=51.433852303773165 11.960930045694115 80.894291486591101 5.3006083238869897 3.4425733592361238 8.1593422461301071 3.7278629746288052 645.11835838668048 17.482650084421039 2.847564809024334 5.4505175705999127
leaf_count=1097 398 2101 83 54 121 73 13366 243 98 60
internal_value=0 -0.00086937 -0.00159746 5.44618e-05 -0.00142786 -0.00325473 0.000109911 0.00160775 -0.000875193 0.000227189
internal_weight=0 143.079 86.1949 692.739 23.8481 15.6888 668.891 23.7728 6.29014 56.8844
internal_count=17694 3341 2184 14353 592 471 13761 395 152 1157
is_linear=0
shrinkage=0.00339094


Tree=1
num_leaves=11
num_cat=0
split_feature=37 31 29 29 42 27 53 40 29 12
split_gain=105.301 43.809 101.832 56.7993 26.5206 25.531 21.834 20.1773 17.5916 16.882
threshold=7.7978150000000012e-06 2.4561100000000003e-08 5.9267400000000008e-07 6.6328650000000012e-07 0.0084212950000000005 9.7228500000000021e-07 0.0089482000000000016 1.0000430000000001e-06 5.0572500000000014e-07 1.8904850000000003e-07
decision_type=2 2 2 2 2 2 2 2 2 2
left_child=1 3 4 6 -3 -4 -1 -7 9 -2
right_child=8 2 5 -5 -6 7 -8 -9 -10 -11
leaf_value=-0.0033623879272198969 -0.0037210360623084232 -0.004362174456672206 0.0007937276503693745 0.00070661200042370113 0.0037939811843950991 -0.0019359231828783817 8.3248457142012517e-05 0.00012526719548693836 0.00049466548204180158 0.0027130651958477644
leaf_weight=187.39736062544398 20.016037163790319 80.084103648550808 271.81535721709952 61.406499829143286 4.1124662905931464 94.314242592081428 23.214066537097096 126.38953323289752 1598.9044331395999 5.2035145452246061
leaf_count=1934 207 943 1640 402 8 832 157 874 10677 20
internal_value=0 -0.00102358 -0.00049187 -0.00214415 -0.00391842 9.78335e-05 -0.00297925 -0.000755544 0.000449541 -0.00230782
internal_weight=0 848.734 576.716 272.018 84.1966 492.519 210.611 220.704 1624.12 25.2196
internal_count=17694 6790 4297 2493 951 3346 2091 1706 10904 227
is_linear=0
shrinkage=0.00339094


Tree=2
num_leaves=11
num_cat=0
split_feature=29 43 37 53 10 33 56 2 56 36
split_gain=103.006 30.5671 25.0664 25.038 22.8222 21.1052 17.9092 20.5368 17.5688 17.2367
threshold=6.1253250000000012e-07 5.3512150000000002e-05 4.6185050000000011e-06 0.0089014800000000015 0.00031371000000000008 1.7649900000000002e-07 0.00079978000000000004 0.00086498650000000016 0.0013097950000000001 8.7774950000000021e-08
decision_type=2 2 2 2 2 2 2 2 2 2
left_child=1 3 4 -1 8 -4 7 -6 -2 -7
right_child=2 -3 5 -5 6 9 -8 -9 -10 -11
leaf_value=-0.0026364826090313279 -0.0053486631146115573 0.0012601136758096218 0.0048351751349183947 0.00023002590987908047 0.0012654279162663039 0.0015046715196876043 0.0015244486752899746 -0.0061620972123863941 0.00086324222123588992 0.00019757899200747889
leaf_weight=238.70370736741461 22.754982635378841 31.542463961988688 10.949032258242367 40.292619147337973 6.8596214670687905 123.66508903400972 27.000855525955558 8.7595013584941608 6.150085872039198 1750.9500419704709
leaf_count=3104 305 120 18 338 33 648 104 60 46 12918
internal_value=0 -0.00186128 0.000238264 -0.00222003 -0.00171847 0.000313583 -0.000115458 -0.00292113 -0.00400167 0.000284776
internal_weight=0 310.539 1957.09 278.996 71.525 1885.56 42.62 15.6191 28.9051 1874.62
internal_count=17694 3562 14132 3442 548 13584 197 93 351 13566
is_linear=0
shrinkage=0.00339094


Tree=3
num_leaves=11
num_cat=0
split_feature=37 26 29 33 56 56 12 25 41 23
split_gain=68.9412 50.4081 53.8063 22.6274 17.1748 27.6561 16.1114 24.6341 17.3387 35.5395
threshold=7.7978150000000012e-06 0.00014585950000000001 5.9930300000000011e-07 2.6268600000000003e-07 0.00046431500000000003 0.00021155600000000003 1.5682050000000004e-07 1.0410150000000002e-05 6.8963900000000006e-05 1.9156950000000003e-07
decision_type=2 2 2 2 2 2 2 2 2 2
left_child=1 2 -1 -2 5 -4 8 -8 9 -6
right_child=3 -3 4 -5 6 -7 7 -9 -10 -11
leaf_value=-0.0019559667223253102 -0.0033842915985819884 -0.0022958566439306607 0.0034790830805754066 0.00042629565136456058 0.00091336956681178547 -0.0027262664564559357 -0.0052280331315983771 0.0016305328279533615 0.0013415739093688658 -0.0028876780551598366
leaf_weight=170.51933004357852 17.248661616817117 208.12224723119289 9.3340835459530336 1422.458139823284 94.057251311838627 41.458561727777123 12.456398423761131 10.074239708483217 211.82130301324651 39.329271946102381
leaf_count=2385 174 2297 30 10696 477 283 104 43 957 320
internal_value=0 -0.000864083 -0.000354824 0.000378271 0.000298306 -0.00152884 0.000555687 -0.00215834 0.000739909 -0.000211875
internal_weight=0 797.173 589.05 1439.71 418.531 50.7926 367.738 22.5306 345.208 133.387
internal_count=17766 6896 4599 10870 2214 313 1901 147 1754 797
is_linear=0
shrinkage=0.00339094


Tree=4
num_leaves=11
num_cat=0
split_feature=37 27 29 33 53 0 0 36 30 36
split_gain=79.2778 60.2233 64.4682 27.703 23.2342 17.8553 18.6958 21.9973 19.7849 17.7938
threshold=7.7978150000000012e-06 9.7228500000000021e-07 6.1253250000000012e-07 2.6268600000000003e-07 0.0089482000000000016 4.772395000000001e-07 3.9664900000000007e-07 3.7870900000000006e-07 6.116420000000001e-06 1.2856850000000003e-07
decision_type=2 2 2 2 2 2 2 2 2 2
left_child=1 2 4 -2 -1 6 7 -5 -8 -4
right_child=3 -3 9 5 -6 -7 8 -9 -10 -11
leaf_value=-0.0026895882528098786 -0.0044970014577153791 -0.0026780877098291126 0.0011093280417972815 0.00043112763641692947 0.00094906979413791068 0.00065421252784721043 0.00050023235530327387 -0.0028316098860656494 -0.0030379500339227342 -0.00037108131689601582
leaf_weight=139.89430015487596 12.276066209189592 177.19812850607559 188.973961844109 302.38016051100567 22.791814226889983 1144.3045710586011 28.530186529271305 24.872863644734025 46.608202951960266 181.94903801288456
leaf_count=2265 174 2297 999 2098 198 7649 198 263 488 1137
internal_value=0 -0.000969237 -0.000397611 0.000396487 -0.00217219 0.000438151 -0.000174496 0.000174556 -0.00169084 0.000381772
internal_weight=0 710.807 533.609 1558.97 162.686 1546.7 402.391 327.253 75.1384 370.923
internal_count=17766 6896 4599 10870 2463 10696 3047 2361 686 2136
is_linear=0
shrinkage=0.00339094


Tree=5
num_leaves=11
num_cat=0
split_feature=25 29 40 0 0 37 44 7 25 18
split_gain=91.6946 24.1855 22.3285 23.3776 32.2472 26.2663 22.8684 26.3146 21.916 23.8167
threshold=2.4757850000000002e-05 5.7221350000000016e-07 2.2011650000000003e-06 4.7404450000000005e-07 2.9218000000000007e-07 7.3651400000000003e-06 8.6363050000000013e-08 5.0777050000000009e-06 9.4049350000000028e-06 0.00034377700000000003
decision_type=2 2 2 2 2 2 2 2 2 2
left_child=1 -1 3 4 8 -5 7 -6 -3 -10
right_child=-2 2 -4 5 6 -7 -8 -9 9 -11
leaf_value=-0.0015772860599732128 0.00092458430260599972 0.0008653861362405374 -0.0014754303880821782 -0.0012248485074748553 -0.0026522324135038813 0.00093056866379159396 -0.0023790494393993848 0.00096326105524953561 -0.0027968103151686284 -0.00011657599598170964
leaf_weight=212.07372723869048 773.35774406045675 193.00578289339319 170.37332852417603 80.537572119850665 34.259621646255255 318.90543101774529 144.76244420837611 66.667834504041821 47.554137813858688 182.58902283804491
leaf_count=3183 5020 1114 1483 758 283 2053 1554 383 420 1515
internal_value=0 -0.000520445 -0.000338102 -0.000155106 -0.000542996 0.000492407 -0.00151799 -0.000268852 2.30486e-05 -0.000680654
internal_weight=0 1450.73 1238.66 1068.28 668.839 399.443 245.69 100.927 423.149 230.143
internal_count=17766 12746 9563 8080 5269 2811 2220 666 3049 1935
is_linear=0
shrinkage=0.00339094


Tree=6
num_leaves=11
num_cat=0
split_feature=37 57 43 44 41 0 38 56 12 61
split_gain=37.9272 17.6266 17.9688 20.5117 19.4142 17.49 20.3594 23.338 19.3963 16.8481
threshold=8.3704950000000019e-06 0.013581150000000002 2.2069600000000003e-05 8.841100000000001e-08 5.6341550000000006e-05 4.772395000000001e-07 0.00037711450000000007 0.00093713650000000015 3.250455000000001e-07 0.0031133950000000006
decision_type=2 2 2 2 2 2 2 2 2 2
left_child=1 2 -1 4 -4 -2 7 -7 -8 -9
right_child=5 -3 3 -5 -6 6 8 9 -10 -11
leaf_value=0.0044772838212679758 -0.0004558707347566972 8.9388556373065124e-05 -0.0050425668380983339 -0.0019712594779218297 -0.00033353793393339477 0.0024210840999166852 -0.00020409014080372554 -0.0044437726711840358 0.00076283920293066258 0.00057239511621454673
leaf_weight=5.8627875298261634 274.01279599359259 244.55556081980467 9.6661337814293784 188.06818102765828 266.53546354128048 119.30197446374223 464.85792929679155 7.7700190721079698 486.53745785076171 67.25101524963975
leaf_count=14 2711 2405 133 2477 2629 493 3209 64 3300 338
internal_value=0 -0.000646023 -0.00102977 -0.00110835 -0.000514607 0.000311282 0.000495606 0.0014942 0.000289866 4.0338e-06
internal_weight=0 714.688 470.133 464.27 276.202 1419.73 1145.72 194.323 951.395 75.021
internal_count=17773 7658 5253 5239 2762 10115 7404 895 6509 402
is_linear=0
shrinkage=0.00339094


Tree=7
num_leaves=11
num_cat=0
split_feature=12 22 37 44 38 57 53 57 29 26
split_gain=30.4228 23.2322 18.8133 28.5159 21.3299 23.7884 14.3992 11.4787 11.332 11.4188
threshold=6.7324750000000011e-07 0.00026999050000000002 7.8078950000000019e-05 1.8258600000000001e-06 0.0030945900000000008 0.013265950000000002 0.0110393 0.012683750000000002 6.1253250000000012e-07 0.0011376500000000002
decision_type=2 2 2 2 2 2 2 2 2 2
left_child=1 6 -2 4 5 -4 8 -5 -1 -10
right_child=2 -3 3 7 -6 -7 -8 -9 9 -11
leaf_value=-0.00081443371429265913 0.0017688581139342185 -0.004259536132666583 -0.003564316355641048 -0.001094966300491651 -0.0040345715639230834 0.0023009697907614025 0.003878578980613721 0.0017375833889712719 3.918899847209168e-05 -0.002565313538801196
leaf_weight=220.6565234111622 174.88953491486609 14.53673651255667 11.822922525927426 19.149653356522322 25.103696839883924 20.166664518415928 9.6764953136444074 86.210367560386658 1515.5358387692831 18.740115953609347
leaf_count=3643 764 123 95 99 196 78 27 346 12303 99
internal_value=0 -0.00010994 0.000999364 0.000162924 -0.00174563 7.25933e-05 -7.34887e-05 0.00120863 -9.7411e-05 5.60445e-06
internal_weight=0 1779.15 337.343 162.453 57.0933 31.9896 1764.61 105.36 1754.93 1534.28
internal_count=17773 16195 1578 814 369 173 16072 445 16045 12402
is_linear=0
shrinkage=0.00339094


Tree=8
num_leaves=11
num_cat=0
split_feature=44 12 53 36 56 52 19 19 25 52
split_gain=18.0317 28.7822 23.1078 27.8114 30.6649 22.0518 12.152 27.6411 21.3872 12.5212
threshold=8.9911300000000004e-07 8.4924250000000017e-07 0.0086788850000000025 3.3193050000000005e-06 0.00078169050000000009 0.00059817400000000004 5.0318950000000007e-05 5.4095250000000007e-05 0.00021016300000000003 0.00059437150000000007
decision_type=2 2 2 2 2 2 2 2 2 2
left_child=-1 5 -3 4 -4 -2 -5 8 -8 -9
right_child=1 2 3 6 -6 -7 7 9 -10 -11
leaf_value=0.00019188799861283556 -0.0057232320117530109 0.002141562134760092 -0.0032933886439317304 0.0029422768907163641 0.001200092164704357 -0.0011838658863480363 0.00040510647491154143 0.002631155869615502 -0.0055664138742156878 -0.0010982567963637073
leaf_weight=1771.7734734201804 19.962998933158815 38.594380476512015 63.646593200042844 18.726706650108099 22.984253596514463 31.791427213698626 12.13616310246289 32.643266782164574 13.858279308304189 13.777363922446964
leaf_count=16729 82 88 363 57 63 88 52 97 90 64
internal_value=0 -0.000750142 -0.000200123 -0.000720033 -0.00208798 -0.00299803 0.000577926 -4.79708e-05 -0.00279927 0.00149859
internal_weight=0 268.121 216.367 177.773 86.6308 51.7544 91.1418 72.4151 25.9944 46.4206
internal_count=17773 1044 874 786 426 170 360 303 142 161
is_linear=0
shrinkage=0.00339094


Tree=9
num_leaves=11
num_cat=0
split_feature=4 2 41 36 12 6 8 14 61 33
split_gain=17.2736 18.8566 16.7052 15.3885 11.5751 29.7341 18.3721 20.2339 20.2626 18.094
threshold=1.3731400000000003e-07 0.0016106650000000003 0.0018399300000000003 9.0776200000000016e-08 8.4924250000000017e-07 0.010158200000000001 8.8255400000000014e-07 0.019353850000000002 0.0036062300000000006 3.4123000000000003e-06
decision_type=2 2 2 2 2 2 2 2 2 2
left_child=1 -1 3 -2 5 -5 9 8 -8 -6
right_child=2 -3 -4 4 6 -7 7 -9 -10 -11
leaf_value=-0.00033645977737968103 -0.0030345989131234296 -0.0032966620459822008 -0.0019326340180099556 0.00022063847544458664 0.00059961869284057702 -0.0053148130458893841 -0.0033127339126047075 0.00098985995678000445 0.0024931212207600375 0.0031054689448311952
leaf_weight=785.59356082417071 14.924180964007972 24.816460854373872 39.487543426454067 885.7121124509722 69.008373441174626 10.419983660802243 29.73663047933951 74.582181607373059 7.9869666490703812 64.705813072621822
leaf_count=8882 181 321 215 7028 280 76 197 280 23 177
internal_value=0 -0.000430965 0.000209787 0.000284829 0.000330943 0.000150828 0.000981652 -2.2789e-05 -0.00202489 0.00182674
internal_weight=0 810.41 1196.56 1157.08 1142.15 896.132 246.02 112.306 37.7236 133.714
internal_count=17660 9203 8457 8242 8061 7104 957 500 220 457
is_linear=0
shrinkage=0.00339094


Tree=10
num_leaves=11
num_cat=0
split_feature=4 14 30 18 12 19 46 38 29 31
split_gain=17.6614 15.8296 11.1839 10.7645 9.82362 10.4012 17.2279 13.4977 14.6683 14.5228
threshold=1.3731400000000003e-07 0.0015946650000000001 2.2685400000000002e-06 0.00027148550000000003 2.7925450000000003e-07 2.2919950000000003e-06 4.3568450000000005e-05 0.00028120350000000006 1.0335500000000003e-06 4.014960000000001e-08
decision_type=2 2 2 2 2 2 2 2 2 2
left_child=1 2 3 -1 5 6 -4 -7 9 -9
right_child=-2 -3 4 -5 -6 7 -8 8 -10 -11
leaf_value=-0.0029796130712619264 0.00024049188786308886 -0.0038205295262120956 -7.31177255645903e-05 0.0028783674169178763 -0.0040130150390438254 0.0006623070273201005 -0.0017109034823780049 -0.00064850537167484288 0.00012178124151092377 -0.0034205287729410501
leaf_weight=3.5228510480374124 1220.4126703301445 14.598857058677821 154.56860784022138 20.206836109049618 7.8670834153890601 181.94821016024798 142.33732929918915 69.683193090837449 150.0011123358272 31.667186329141259
leaf_count=87 8457 237 1730 199 135 1944 2116 845 1469 441
internal_value=0 -0.000413362 -0.000343414 0.00190428 -0.000418563 -0.000374715 -0.000862819 -3.77254e-05 -0.000547696 -0.00153948
internal_weight=0 776.401 761.802 23.7297 738.073 730.206 296.906 433.3 251.351 101.35
internal_count=17660 9203 8966 286 8680 8545 3846 4699 2755 1286
is_linear=0
shrinkage=0.00339094


Tree=11
num_leaves=11
num_cat=0
split_feature=25 38 25 34 44 38 56 0 25 31
split_gain=12.7324 16.5735 12.1197 11.7737 18.3097 15.1712 10.3826 10.0806 16.6779 10.3994
threshold=1.4424450000000002e-05 0.00018391850000000002 1.3968200000000001e-05 1.3971000000000001e-05 7.8693450000000006e-08 0.00022594050000000003 0.00052355550000000005 6.9133150000000016e-08 6.4397050000000016e-06 2.4561100000000003e-08
decision_type=2 2 2 2 2 2 2 2 2 2
left_child=1 7 3 -3 -5 6 -6 8 -1 -9
right_child=-2 2 -4 4 5 -7 -8 9 -10 -11
leaf_value=0.0030546134237992091 0.00018868357839293368 -0.0011999241498257887 -0.0030365501508278821 0.0023032334014799131 -0.0035258662025554324 -0.00072142768150565634 0.0016644903180715218 0.00015086800096638354 -0.0050252990109708566 0.0021590135668373097
leaf_weight=3.7058194503188115 1281.6012811595574 192.96701303496957 22.399748871102929 30.779480944853276 3.9917129687964907 275.98169031133875 50.353135667741299 73.552660052198917 7.55940115544945 49.907317737583071
leaf_count=22 8788 2860 289 245 85 3483 464 1016 113 295
internal_value=0 -0.000376762 -0.000627609 -0.00052497 -0.000160613 -0.000397113 0.00122359 0.00068853 -0.0022572 0.000976174
internal_weight=0 711.198 576.473 554.073 361.106 330.327 54.3448 134.725 11.2652 123.46
internal_count=17660 8872 7426 7137 4277 4032 549 1446 135 1311
is_linear=0
shrinkage=0.00339094


Tree=12
num_leaves=11
num_cat=0
split_feature=37 34 14 46 41 2 0 1 41 25
split_gain=10.9252 9.98088 20.0335 12.3441 11.8104 14.5353 15.7598 23.0712 15.7404 18.332
threshold=3.3678550000000002e-06 0.00034797000000000007 0.021306750000000003 0.0011634850000000003 0.0018953650000000002 0.010633700000000001 5.1630200000000009e-06 0.00014989700000000005 0.00093018700000000018 6.3249000000000017e-05
decision_type=2 2 2 2 2 2 2 2 2 2
left_child=-1 2 4 -4 5 6 8 -8 9 -2
right_child=1 -3 3 -5 -6 -7 7 -9 -10 -11
leaf_value=0.0023951860214743038 5.5890846371021887e-05 0.0021584706290244883 -0.00054378342306082524 -0.0058583478546032075 -0.0035449575893517597 0.0012611586154212414 0.00068604823523677014 -0.0048850896918443427 0.0021172511830520654 -0.0012310030487750335
leaf_weight=21.303132656961679 1606.7359326407313 23.502173519693315 9.9496604427695292 9.978152131661771 9.8303905753418785 103.37739880755544 14.923003615811465 17.669022891670465 38.724122461862862 137.3386821099557
leaf_count=224 15507 74 42 59 96 454 63 107 118 768
internal_value=0 7.28843e-07 -2.57927e-05 -0.00333767 9.40285e-06 2.94304e-05 -4.08313e-05 -0.00234736 1.94394e-06 -4.55416e-05
internal_weight=0 1972.03 1948.53 19.9278 1928.6 1918.77 1815.39 32.592 1782.8 1744.07
internal_count=17512 17288 17214 101 17113 17017 16563 170 16393 16275
is_linear=0
shrinkage=0.00339094


Tree=13
num_leaves=11
num_cat=0
split_feature=52 53 14 33 40 53 4 43 39 0
split_gain=9.1255 25.5826 16.5531 40.2232 13.1252 10.2211 30.2936 22.4573 34.408 18.8985
threshold=0.00073935000000000005 0.0097121200000000029 0.010379900000000003 2.5596700000000003e-06 3.588990000000001e-05 0.0098652600000000024 1.6972450000000002e-06 0.00034732400000000004 1.2142400000000003e-05 3.9190600000000009e-06
decision_type=2 2 2 2 2 2 2 2 2 2
left_child=4 2 3 -2 5 6 7 8 9 -1
right_child=1 -3 -4 -5 -6 -7 -8 -9 -10 -11
leaf_value=6.1557173372410741e-05 -0.00010012624386039994 -0.0038573398825424926 0.0024996633017233161 -0.0048027658134402176 0.0036711597555395509 0.0011647427536186151 -0.0035137042224135935 0.0018588950896844931 -0.0045098835043703434 0.0043083001299646893
leaf_weight=918.42158399056643 743.98427022853866 21.085130750667304 25.500329751521349 20.698057749308646 11.727126466110347 110.42022636160254 25.388966267928481 82.838477888144553 17.996491517871618 11.364136949181555
leaf_count=8362 7484 180 74 151 29 546 153 312 189 32
internal_value=0 -0.000242619 -0.000141606 -0.000233067 0.000224398 0.000186695 8.29727e-05 0.000174875 2.55417e-05 0.000117806
internal_weight=0 811.268 790.183 764.682 1178.16 1166.43 1056.01 1030.62 947.782 929.786
internal_count=17512 7889 7709 7635 9623 9594 9048 8895 8583 8394
is_linear=0
shrinkage=0.00339094


Tree=14
num_leaves=11
num_cat=0
split_feature=22 37 23 37 14 26 43 57 11 36
split_gain=12.8687 10.7457 10.2336 31.0344 16.2006 23.319 16.6555 11.356 23.796 11.9718
threshold=0.00083680150000000014 3.3678550000000002e-06 5.2283550000000009e-06 0.00011060900000000001 0.0070747250000000013 0.0011376500000000002 0.00025763500000000004 0.012733750000000002 2.6810600000000004e-05 1.7178050000000002e-06
decision_type=2 2 2 2 2 2 2 2 2 2
left_child=1 -1 4 -4 5 6 -3 8 9 -6
right_child=-2 2 3 -5 7 -7 -8 -9 -10 -11
leaf_value=0.0022658927414878197 0.0025952971938201942 -4.0233921420869935e-05 0.0022858844240053384 -0.0043175350321555299 -0.00063118817277196587 -0.0052538104601438096 -0.0055923641473446589 0.0012831844669025331 -0.0034226666572665715 0.0037396214927097027
leaf_weight=23.252997681964189 21.639794973190874 1678.9284862647764 12.190449233166872 20.894549177959561 14.303943190723659 9.1582112070173007 5.3835972175002089 173.37070250744 19.054871211759746 12.555565685965119
leaf_count=224 70 15776 43 172 91 141 52 767 141 35
internal_value=0 1.52495e-05 -1.21813e-05 -0.00185829 2.01271e-05 -9.19115e-05 -6.10013e-05 0.000885855 -0.000591797 0.0014243
internal_weight=0 1969.09 1945.84 33.085 1912.76 1693.47 1684.31 219.285 45.9144 26.8595
internal_count=17512 17442 17218 215 17003 15969 15828 1034 267 126
is_linear=0
shrinkage=0.00339094


Tree=15
num_leaves=11
num_cat=0
split_feature=0 29 0 25 57 36 60 45 29 29
split_gain=13.85 17.405 15.9651 15.2819 11.2455 24.7942 14.4643 22.9207 18.3435 28.8098
threshold=3.6656400000000004e-06 2.1450350000000004e-05 1.9712400000000005e-06 0.00025828550000000003 0.012513850000000002 4.7377600000000005e-07 0.00016137150000000003 7.9731550000000021e-06 5.0904750000000006e-06 1.1313400000000003e-05
decision_type=2 2 2 2 2 2 2 2 2 2
left_child=2 -2 -1 -3 -4 -6 7 -7 -8 -10
right_child=1 3 4 -5 5 6 8 -9 9 -11
leaf_value=2.8147268159935033e-05 0.0011224930599370762 -0.0045153595944129139 -0.0029877002366729471 0.0016196143405185779 -0.0056462364302336853 -0.003824346947440097 0.0012217784542890566 0.00047692774964311872 -0.0050405708829423116 0.0025158598702214275
leaf_weight=1603.0768989450298 197.24021760839969 11.626217827200891 27.374752666801214 6.5756065752357236 9.8152723070234043 27.80339283356443 78.799700560048223 27.307459079194814 14.25532769598067 8.5425885301083309
leaf_count=15659 870 100 186 28 112 227 363 128 135 38
internal_value=0 0.000825424 -8.27446e-05 -0.00225478 -0.000999701 -0.000656691 -0.000311934 -0.00169899 0.000441135 -0.00217022
internal_weight=0 215.442 1796.98 18.2018 193.898 166.524 156.708 55.1109 101.598 22.7979
internal_count=17846 998 16848 128 1189 1003 891 355 536 173
is_linear=0
shrinkage=0.00339094


Tree=16
num_leaves=11
num_cat=0
split_feature=7 34 34 0 26 43 25 18 52 55
split_gain=11.0681 16.7145 32.2226 14.909 13.4168 18.9181 16.0065 12.728 11.3777 11.2668
threshold=0.00014259600000000002 0.00031343300000000006 0.00033103300000000005 3.4973100000000007e-06 0.0015576850000000003 0.00036860400000000008 9.9292700000000019e-05 0.0079398450000000027 0.00021012300000000002 0.0049355550000000012
decision_type=2 2 2 2 2 2 2 2 2 2
left_child=1 3 -3 4 6 -6 -1 -4 -8 -5
right_child=-2 2 7 9 5 -7 8 -9 -10 -11
leaf_value=-5.4251779468819194e-05 0.0018343947901163611 -0.005385789373591925 0.0027346136026014448 0.00067639826390290553 -1.5486353899848138e-05 -0.0060919575765481099 0.0046977621402127688 -0.0018204917297617411 0.00068004910692427917 0.0033509420523648685
leaf_weight=1709.4483481566422 37.744318269193172 18.295500604435802 12.655107268132271 145.26926884613931 13.583872709423305 9.2832143930718285 12.721265532076357 13.614601540379224 21.252581264823675 20.074154295027256
leaf_count=16422 142 172 57 650 82 79 15 82 91 54
internal_value=0 4.74294e-07 -0.00203267 4.85519e-05 -4.23689e-05 -0.00257622 -7.59527e-06 0.000355622 0.00226821 0.00101976
internal_weight=0 1976.2 44.5652 1931.63 1766.29 22.8671 1743.42 26.2697 33.9738 165.343
internal_count=17846 17704 311 17393 16689 161 16528 139 106 704
is_linear=0
shrinkage=0.00339094


Tree=17
num_leaves=11
num_cat=0
split_feature=1 37 29 30 30 26 47 25 60 37
split_gain=16.7893 10.3639 11.6742 14.5764 10.0103 10.71 21.3639 11.4518 18.882 8.44832
threshold=0.00034428300000000008 0.00019473500000000003 4.2535200000000014e-06 3.1497800000000009e-05 2.2685400000000002e-06 0.00010122600000000001 2.6237800000000005e-07 8.0563750000000013e-06 0.00021922400000000004 5.3499200000000004e-05
decision_type=2 2 2 2 2 2 2 2 2 2
left_child=1 2 3 4 -1 7 -7 -6 -9 -8
right_child=-2 -3 -4 -5 5 6 9 8 -10 -11
leaf_value=0.0018911252858971558 0.0029900279035532935 -0.0041408675330115398 0.00049794904878565469 -0.0047917849248473518 -0.0027609408849484911 0.0027967150107697535 -0.00010886948109711025 0.0016577055825583267 -0.0035192150548122368 -0.0032583929122617147
leaf_weight=27.680365147069097 21.05918572563678 6.0464894529432049 452.55558449588716 6.8061777544207862 35.340689192991704 28.394672946073115 1389.7072490090504 23.83525219373405 11.219331479631363 9.0364652220159751
leaf_count=297 71 68 2712 77 566 186 13467 202 144 56
internal_value=0 5.01138e-06 1.9641e-05 -0.000121368 -9.76274e-05 -0.000135825 -7.12716e-05 -0.00141964 -2.15019e-05 -0.000131524
internal_weight=0 1990.62 1984.58 1532.02 1525.21 1497.53 1427.14 70.3953 35.0546 1398.74
internal_count=17846 17775 17707 14995 14918 14621 13709 912 346 13523
is_linear=0
shrinkage=0.00339094


Tree=18
num_leaves=11
num_cat=0
split_feature=5 13 61 12 6 8 31 52 29 52
split_gain=10.4245 18.9646 17.9088 17.6639 16.0763 14.8034 17.2464 20.925 16.3625 20.1919
threshold=0.00013684500000000002 0.00013272850000000002 0.0031833250000000003 1.1368450000000003e-06 0.010637250000000003 8.8255400000000014e-07 4.1043850000000008e-07 0.00067697150000000012 1.4414850000000001e-05 0.00058355350000000017
decision_type=2 2 2 2 2 2 2 2 2 2
left_child=1 3 -2 -1 -3 -4 7 -7 -8 -10
right_child=2 4 5 -5 -6 6 8 -9 9 -11
leaf_value=-1.083592241043558e-05 -0.0022848667318692219 -0.0044066795571548138 0.0031031348676768778 0.0022868558666530947 0.00074133673266269819 -0.0052457272564091495 0.0026265791545500706 0.0018056750285049817 0.0010011959713959928 -0.0040771219653480961
leaf_weight=1766.6013790215366 17.411649014800787 19.473511201329533 36.792942731641233 38.473299885168672 9.7416065931320173 10.60917190089822 46.945914444513619 7.4738607704639426 38.348657314199954 10.73536100797355
leaf_count=16565 169 111 82 155 36 95 167 25 220 84
internal_value=0 -5.27584e-06 0.000874087 3.87088e-05 -0.00267691 0.0012548 0.000635962 -0.00231179 0.00121341 -0.00014118
internal_weight=0 1834.29 168.318 1805.07 29.2151 150.906 114.113 18.083 96.0299 49.084
internal_count=17709 16867 842 16720 147 673 591 120 471 304
is_linear=0
shrinkage=0.00339094


Tree=19
num_leaves=11
num_cat=0
split_feature=8 6 4 54 53 57 31 36 2 11
split_gain=11.5184 16.1074 15.5369 21.6258 13.7147 13.3065 11.7409 10.5941 18.7612 14.0809
threshold=8.5341750000000012e-07 0.010158200000000001 8.8853350000000013e-07 0.71825450000000013 0.0089188750000000015 0.012733750000000002 1.5123650000000001e-08 3.5080000000000005e-06 0.021194950000000004 5.164760000000001e-05
decision_type=2 2 2 2 2 2 2 2 2 2
left_child=1 6 4 -4 -2 -5 -1 8 9 -7
right_child=2 -3 3 5 -6 7 -8 -9 -10 -11
leaf_value=0.0020739238305834966 0.0039009480490001113 -0.0044301237224829218 -0.0047737943637670673 -0.0028522603208814773 0.00046510603117227718 -0.00070185211264483399 -3.2283455338379288e-05 0.002106248444079294 -0.0042088186590258795 0.0027512719699560617
leaf_weight=30.11880699172616 29.633685497567058 8.6207453776150924 8.3245942927896959 10.688836819492279 24.512683071661741 29.856735911685973 1776.0737418646459 49.761602173559368 9.2503771828487498 23.153730127494782
leaf_count=298 57 99 75 147 102 187 16398 171 88 87
internal_value=0 -1.9244e-05 0.000866409 0.00022565 0.00238 0.000599547 3.32502e-06 0.00095421 8.85564e-06 0.00080928
internal_weight=0 1814.81 185.182 131.036 54.1464 122.711 1806.19 112.022 62.2608 53.0105
internal_count=17709 16795 914 755 159 680 16696 533 362 274
is_linear=0
shrinkage=0.00339094


Tree=20
num_leaves=11
num_cat=0
split_feature=37 33 45 44 19 31 40 52 18 37
split_gain=16.6093 23.9473 28.9701 18.2658 18.4984 12.3751 11.2653 14.0422 17.4505 12.6045
threshold=6.1764050000000017e-05 2.7972700000000003e-06 1.1679600000000001e-05 7.0272600000000004e-07 1.6742400000000001e-05 1.5123650000000001e-08 1.2338900000000001e-05 0.0009238470000000001 0.004259530000000001 0.00011060900000000001
decision_type=2 2 2 2 2 2 2 2 2 2
left_child=1 3 -3 4 5 -1 -2 8 -8 -10
right_child=6 2 -4 -5 -6 -7 7 -9 9 -11
leaf_value=0.0020830948512990423 0.0017669213888389696 -0.003573693423979079 0.0033286381710761108 0.0024215201824044816 -0.0033890298500223351 -1.6205790057339654e-05 -0.0035330131061566635 0.0033019419096323504 0.0025645414955570802 -0.00045026032477556274
leaf_weight=32.077141512650996 104.19435741472989 39.305239595472813 7.594819037243723 35.361436633393168 17.610949663445354 1655.6735055719037 14.91601196862757 13.590464850887654 20.936879871413112 57.40818199981004
leaf_count=298 519 313 31 162 160 15610 115 46 68 387
internal_value=0 -2.6536e-05 -0.00239614 3.79409e-05 -1.21492e-05 2.4216e-05 0.000977216 0.000194437 -0.000276678 0.000363416
internal_weight=0 1787.62 46.9001 1740.72 1705.36 1687.75 211.046 106.852 93.2611 78.3451
internal_count=17709 16574 344 16230 16068 15908 1135 616 570 455
is_linear=0
shrinkage=0.00339094


Tree=21
num_leaves=11
num_cat=0
split_feature=14 27 41 42 41 4 14 41 40 12
split_gain=21.6814 20.432 16.6629 15.5416 14.0795 11.265 12.2102 24.534 15.1082 11.8007
threshold=0.0099414450000000019 9.8805500000000015e-06 0.0018953650000000002 0.10790300000000001 0.00087441550000000019 8.3335600000000009e-07 0.019353850000000002 0.00095832950000000012 1.0806700000000001e-05 1.7277800000000003e-06
decision_type=2 2 2 2 2 2 2 2 2 2
left_child=1 -1 5 -4 -3 -2 7 8 -7 -9
right_child=2 4 3 -5 -6 6 -8 9 -10 -11
leaf_value=-0.00012154947270424934 0.0034308661341561643 -0.00041524230938387417 0.0017410192804991592 -0.0050202121842126976 -0.0062534198449892917 0.0023963825456445789 0.0019076484401036194 -0.0039144255450359938 -0.0013988714476792152 0.00083461914198975848
leaf_weight=1756.9576850612648 23.923205276019871 9.0865705688484031 5.6887449305504552 8.9401509668678028 9.8347710315138084 41.027282863855362 78.637139519210905 19.544547078199688 15.818653838708995 7.7225461518391958
leaf_count=16670 68 68 40 97 89 131 328 158 101 35
internal_value=0 -0.000160459 0.00101141 -0.00235164 -0.00359049 0.00128918 0.00095504 4.68934e-05 0.00131694 -0.00253973
internal_weight=0 1775.88 201.302 14.6289 18.9213 186.673 162.75 84.113 56.8459 27.2671
internal_count=17785 16827 958 137 157 821 753 425 232 193
is_linear=0
shrinkage=0.00339094


Tree=22
num_leaves=11
num_cat=0
split_feature=12 25 0 61 54 39 47 33 56 29
split_gain=19.2148 19.6625 33.0429 18.6834 13.5673 10.2621 20.5688 15.3482 14.6649 15.2159
threshold=8.4924250000000017e-07 5.3610950000000009e-05 1.6439450000000002e-06 0.0030706950000000005 0.73887100000000017 1.2079100000000002e-06 3.2692900000000006e-07 2.9161400000000006e-07 0.00082065800000000004 6.6328650000000012e-07
decision_type=2 2 2 2 2 2 2 2 2 2
left_child=1 5 4 -2 -3 7 -7 8 -1 -10
right_child=3 2 -4 -5 -6 6 -8 -9 9 -11
leaf_value=-0.0017217878684367542 -0.0039256358900312642 -0.0055789719971276984 -0.00051752526818423211 0.0010212829601916346 0.00010268776248922195 -0.0012369627465721527 8.2829636460908237e-06 0.0024322762684731293 -0.0011010243660302486 0.0026339352127993316
leaf_weight=33.483973427675664 8.1426213253289443 24.12774859182537 113.92184316879138 239.14385883044451 5.5153526216745368 172.03398964833468 1286.6556253931485 45.112747264560312 19.967808251734823 30.417015422135592
leaf_count=433 86 231 782 1099 40 2555 11709 373 309 168
internal_value=0 -0.000166444 -0.00136469 0.000842375 -0.00450423 -5.70423e-05 -0.000138663 0.000855893 5.8639e-07 0.00114309
internal_weight=0 1731.24 143.565 247.286 29.6431 1587.67 1458.69 128.982 83.8688 50.3848
internal_count=17785 16600 1053 1185 271 15547 14264 1283 910 477
is_linear=0
shrinkage=0.00339094


Tree=23
num_leaves=11
num_cat=0
split_feature=3 6 41 46 39 47 22 12 46 45
split_gain=15.1895 16.1937 13.2318 13.8025 12.3153 19.6078 12.9975 11.7285 12.2024 14.724
threshold=6.8863300000000015e-05 0.010371500000000001 0.0018953650000000002 0.0011781600000000004 1.2079100000000002e-06 3.2692900000000006e-07 2.7085400000000003e-05 1.6118900000000001e-06 5.2344950000000004e-05 1.0157450000000003e-06
decision_type=2 2 2 2 2 2 2 2 2 2
left_child=1 4 -2 -4 6 -6 -1 8 9 -7
right_child=2 -3 3 -5 5 7 -8 -9 -10 -11
leaf_value=-0.0008129909933331155 0.0010595399576404376 -0.0057567512168483137 0.0014898103941773744 -0.0050939301151417459 -0.0013068333813481502 0.00028524968335587694 0.0014933104255189422 0.0027840369382219352 -0.00017682024061956147 0.0035237680314863309
leaf_weight=37.742980180308223 197.33611198375002 5.0047124614939085 5.5899672610685212 7.7264202972874045 162.38350053178146 61.081050164531916 100.77916532242671 15.538165802136062 1363.0262949084863 21.454271125607193
leaf_count=422 896 46 34 103 2555 720 861 56 11974 118
internal_value=0 -0.000127536 0.00083393 -0.00231223 -0.000108588 -0.00019187 0.000857967 -6.68521e-05 -9.94803e-05 0.00115879
internal_weight=0 1767.01 210.652 13.3164 1762.01 1623.48 138.522 1461.1 1445.56 82.5353
internal_count=17785 16752 1033 137 16706 15423 1283 12868 12812 838
is_linear=0
shrinkage=0.00339094


Tree=24
num_leaves=11
num_cat=0
split_feature=7 2 36 44 10 26 52 12 2 55
split_gain=15.6075 17.1166 20.9638 17.6985 22.2803 24.3041 14.8176 13.851 16.8794 12.7093
threshold=0.00014806250000000003 0.021194950000000004 4.9656100000000011e-06 2.3942800000000004e-06 0.0079213950000000029 0.0019007400000000002 0.00019263950000000002 1.4015350000000002e-06 0.010416050000000001 0.0049562350000000007
decision_type=2 2 2 2 2 2 2 2 2 2
left_child=1 3 -3 4 5 6 -1 9 -9 -8
right_child=-2 2 -4 -5 -6 -7 7 8 -10 -11
leaf_value=0.0016429435093236952 0.0028510710265539246 -0.0051759935353113996 0.0015071313701744942 -0.005431094862157114 0.0028190089120844392 -0.0030302956472361784 -0.00017367547955307564 0.0037907837726534797 -0.00088297086799603677 0.0012833151605820452
leaf_weight=59.037317073438317 20.346661098301411 15.127476932248102 7.3732077423483124 6.1170822679996482 30.434805401600897 30.441638789139688 1696.0673144632019 21.921652744524181 13.442201586440204 70.833032834343612
leaf_count=425 62 156 25 40 108 277 16068 61 66 554
internal_value=0 -7.39931e-05 -0.00296044 -3.87604e-05 -1.90135e-05 -6.61931e-05 -1.60869e-05 -7.15127e-05 0.0020037 -0.00011432
internal_weight=0 1950.8 22.5007 1928.3 1922.18 1891.74 1861.3 1802.26 35.3639 1766.9
internal_count=17842 17780 181 17599 17559 17451 17174 16749 127 16622
is_linear=0
shrinkage=0.00339094


Tree=25
num_leaves=11
num_cat=0
split_feature=12 52 0 25 34 39 34 44 29 52
split_gain=16.6017 11.5577 13.2461 12.423 9.79333 9.32413 14.3772 20.6308 16.3906 13.2077
threshold=1.7973650000000002e-06 0.00016045300000000002 8.451815000000002e-06 0.00024157650000000003 0.0003199125 1.2261200000000003e-06 1.3971000000000001e-05 8.2058750000000013e-08 7.4976000000000006e-07 0.00059437150000000007
decision_type=2 2 2 2 2 2 2 2 2 2
left_child=1 -1 3 5 -4 -3 -7 8 -8 -9
right_child=-2 2 4 -5 -6 6 7 9 -10 -11
leaf_value=0.0014788783733127198 0.0018149542875890671 0.00067783483248252008 -0.00079788597863932585 0.0035392919451731693 -0.0053415769826249179 -0.0010852822959844339 -0.0008911066170142392 -0.00059439686806410917 0.0028666105607073459 8.0949653318403676e-05
leaf_weight=52.022323211189359 53.595821079798043 154.26045263279229 14.450672575272622 9.8891790225170535 8.6536875609308463 183.16555553954095 17.780113766901195 522.03397687198594 45.61855686455965 912.39100653585047
leaf_count=377 219 1400 101 44 103 2834 209 4492 207 7856
internal_value=0 -8.37016e-05 -0.000128196 -9.53254e-05 -0.00263503 -0.000116802 -0.000190431 -8.00317e-05 0.00179904 -0.000164516
internal_weight=0 1920.27 1868.24 1845.14 23.1044 1835.25 1680.99 1497.82 63.3987 1434.42
internal_count=17842 17623 17246 17042 204 16998 15598 12764 416 12348
is_linear=0
shrinkage=0.00339094


Tree=26
num_leaves=11
num_cat=0
split_feature=10 26 53 22 25 45 47 16 7 8
split_gain=11.7332 26.7042 13.5036 41.5631 11.9196 15.6882 14.8961 10.8246 11.5395 26.3082
threshold=0.0079213950000000029 0.0021455700000000003 0.010232450000000002 0.00078425350000000012 8.3220950000000018e-05 8.2801600000000014e-06 3.7346000000000002e-06 5.8595900000000001e-07 4.5128150000000009e-05 5.2776150000000005e-07
decision_type=2 2 2 2 2 2 2 2 2 2
left_child=1 4 3 -2 5 7 -6 8 9 -1
right_child=2 -3 -4 -5 6 -7 -8 -9 -10 -11
leaf_value=-4.7549993804096147e-05 0.0031840065083030967 -0.0035075775854493934 0.0024161651528156916 -0.0056593183994207482 0.0027590608842718396 -0.0037347637220607141 0.00022109781172516317 -0.0030158205941386391 0.0021724768929261059 -0.0044673283088067861
leaf_weight=1679.6902403056156 12.83730193693191 24.946795713622123 44.906604573130608 10.074590307194738 36.665917277336121 12.765934600029139 93.526161779183894 13.471702288836239 25.500302108936012 14.792526932433246
leaf_count=15951 50 298 145 101 179 153 491 124 141 209
internal_value=0 -8.03238e-05 0.00134625 -0.000720867 -3.29435e-05 -0.000107247 0.000952953 -7.84586e-05 -5.36826e-05 -8.85876e-05
internal_weight=0 1901.36 67.8185 22.9119 1876.41 1746.22 130.192 1733.45 1719.98 1694.48
internal_count=17842 17546 296 151 17248 16578 670 16425 16301 16160
is_linear=0
shrinkage=0.00339094


Tree=27
num_leaves=11
num_cat=0
split_feature=33 30 53 14 57 56 42 57 57 31
split_gain=26.4844 20.1045 14.4839 11.7058 9.16698 8.87516 11.9466 12.9243 22.3752 14.2357
threshold=3.3298400000000005e-06 3.9293350000000009e-05 0.010115800000000001 0.010147450000000001 0.014579250000000002 0.00040720350000000009 0.053222150000000003 0.013457450000000001 0.014049600000000001 3.1807800000000005e-07
decision_type=2 2 2 2 2 2 2 2 2 2
left_child=1 2 3 -1 5 -2 -7 9 -9 -8
right_child=4 -3 -4 -5 -6 6 7 8 -10 -11
leaf_value=-0.00013633383163618373 0.0018979628145125572 -0.0026752790132048782 0.0022894485230179951 0.0040696070470621582 0.0033205249291876912 0.0019418440007820332 -0.0031279825543932107 -0.0047526719962468766 0.0011462197051985664 0.0013703740190327488
leaf_weight=1692.9670941671357 66.368501001503319 34.101618581451476 28.385184390470386 6.7819559425115576 19.702969737350941 36.490161145105958 8.8520847484469396 15.99312459677458 12.303102823905645 45.818002640269697
leaf_count=16045 326 341 123 11 59 165 62 151 54 323
internal_value=0 -0.000128149 -7.63004e-05 -0.000117258 0.00115571 0.000909768 0.000346216 -0.000359398 -0.00219106 0.000592107
internal_weight=0 1762.24 1728.13 1699.75 205.528 185.825 119.456 82.9663 28.2962 54.6701
internal_count=17660 16520 16179 16056 1140 1081 755 590 205 385
is_linear=0
shrinkage=0.00339094


Tree=28
num_leaves=11
num_cat=0
split_feature=27 60 41 37 37 4 12 57 45 61
split_gain=30.2564 22.305 16.1158 12.9592 11.1636 12.6976 10.8209 10.4863 35.0013 21.846
threshold=4.6865600000000016e-06 0.00030477800000000007 0.00038010150000000005 3.3460500000000009e-05 3.9124000000000007e-05 4.2030200000000003e-07 2.9001350000000008e-07 0.014112750000000002 7.9731550000000021e-06 0.0035937400000000002
decision_type=2 2 2 2 2 2 2 2 2 2
left_child=2 7 4 -4 5 -1 -7 -2 -9 -10
right_child=1 -3 3 -5 -6 6 -8 8 9 -11
leaf_value=-0.00010842719483955574 0.0011841011407892968 -0.0035420027294431893 -0.0035828046427883948 5.7006096698273936e-05 0.0028781096589136747 -0.00075585257550627881 -0.0042336937108488053 -0.0049961036843662304 -0.0024119723241598258 0.0029144344944568848
leaf_weight=1448.9790319174062 349.14689619420096 12.023822600953279 27.807758968323469 17.644305997528136 13.115439867600797 34.187355824746192 14.560787580907343 13.343072255142031 12.038303069770334 26.334502715617418
leaf_count=14502 1987 97 196 94 48 304 130 143 70 89
internal_value=0 0.000832453 -0.000199166 -0.00217122 -0.0001383 -0.000166673 -0.00185505 0.000972777 -0.000434496 0.00120054
internal_weight=0 412.887 1556.29 45.4521 1510.84 1497.73 48.7481 400.863 51.7159 38.3728
internal_count=17660 2386 15274 290 14984 14936 434 2289 302 159
is_linear=0
shrinkage=0.00339094


Tree=29
num_leaves=11
num_cat=0
split_feature=37 0 18 18 54 55 23 29 53 0
split_gain=27.9108 17.5783 12.1007 14.8834 11.1094 29.1054 25.6672 14.0668 10.8806 16.9208
threshold=2.0888000000000004e-05 1.9712400000000005e-06 0.0012116700000000002 0.0011473300000000002 0.72314950000000011 0.0048090750000000012 7.090530000000001e-07 6.2181700000000013e-06 0.0078945450000000011 9.457110000000001e-07
decision_type=2 2 2 2 2 2 2 2 2 2
left_child=1 2 3 -1 5 -2 -7 -8 -6 -10
right_child=4 -3 -4 -5 8 6 7 -9 9 -11
leaf_value=-0.00022855480056788665 0.00054772608484219556 -0.0033942501072378841 0.0017126395534160328 -0.0043389558639233723 -0.0025384206644516053 0.0030757474744924473 -0.0064252506643064792 -0.0016021663186301155 -0.00047353366952530677 0.0012695986860228488
leaf_weight=1253.1174531779252 156.93357062712312 19.406294723041356 35.806262181140482 9.4019523710012418 9.4076947253197414 6.130431178957223 14.718171797692778 14.455590099096296 76.131306821480393 370.17016509082168
leaf_count=13245 955 202 207 105 79 27 146 112 559 2023
internal_value=0 -0.000255781 -0.000206351 -0.000262359 0.000603267 -7.64606e-05 -0.00282292 -0.00415113 0.000891392 0.000970107
internal_weight=0 1317.73 1298.33 1262.52 647.947 192.238 35.3042 29.1738 455.709 446.301
internal_count=17660 13759 13557 13350 3901 1240 285 258 2661 2582
is_linear=0
shrinkage=0.00339094


Tree=30
num_leaves=11
num_cat=0
split_feature=37 40 4 4 27 25 12 26 12 6
split_gain=18.688 16.042 17.4864 13.4887 10.4806 27.4525 11.634 10.491 14.1551 13.9459
threshold=1.5171350000000002e-05 2.1745300000000001e-06 2.2442250000000004e-07 9.5515200000000016e-08 1.7775600000000001e-06 2.1525550000000003e-05 1.6895600000000002e-07 0.00037581550000000005 3.3895550000000005e-07 0.0040476750000000006
decision_type=2 2 2 2 2 2 2 2 2 2
left_child=1 -1 3 -3 6 -6 -2 -7 9 -9
right_child=4 2 -4 -5 5 7 -8 8 -10 -11
leaf_value=-0.00017769254180764879 0.0030312509495028514 -0.0042463453366827063 -0.0043617912092132971 -0.00048886354714373589 -0.0041757178629509622 0.0014463213643861146 -0.0014163251476177708 -0.00031048632862435148 0.00050969583306235326 -0.0040190611064493571
leaf_weight=953.11089282366447 29.719640604220331 11.639123525470493 19.303568130359054 102.19701184518635 14.859023595228789 87.164510369300842 7.7812909437343469 200.22478181822225 511.4092698097229 11.55404583737254
leaf_count=10705 166 205 266 1097 219 574 86 1319 2992 83
internal_value=0 -0.00033304 -0.00143269 -0.000905007 0.000335088 0.000253509 0.00206982 0.000339724 0.000203951 -0.000530129
internal_weight=0 1086.25 133.14 113.836 862.713 825.212 37.5009 810.353 723.188 211.779
internal_count=17712 12273 1568 1302 5439 5187 252 4968 4394 1402
is_linear=0
shrinkage=0.00339094


Tree=31
num_leaves=11
num_cat=0
split_feature=37 29 31 25 2 45 40 29 33 39
split_gain=21.287 17.0114 24.0751 12.5835 15.7801 18.3161 17.1662 17.8155 14.8888 14.0551
threshold=1.5171350000000002e-05 1.0146150000000002e-06 6.7447500000000009e-08 2.4757850000000002e-05 0.0026131650000000002 2.4598250000000002e-06 1.7925900000000001e-06 2.9701250000000002e-06 9.7888400000000026e-07 4.4785650000000007e-06
decision_type=2 2 2 2 2 2 2 2 2 2
left_child=-1 -2 -3 -4 -5 8 7 -7 -6 -10
right_child=1 2 3 4 5 6 -8 -9 9 -11
leaf_value=-0.00033726458373506158 -0.0036384025474822447 0.0021607863738052476 -0.0016386764735276237 0.0017155899726512653 -0.0047632693973429343 -0.0044537101273546672 0.00047876741566148023 -0.00020454205870993868 0.0032927130449027812 -0.0020511213432865519
leaf_weight=1068.4968578368425 11.05532742012292 82.701053838711232 37.785466996021569 84.490034978836775 14.021070373244582 15.721752587705849 574.4929955038242 37.20878077391535 7.199357062578204 17.777356618084013
leaf_count=12273 132 409 396 430 179 159 3284 268 28 154
internal_value=0 0.000374043 0.000429162 0.00024471 0.000342104 0.000165089 0.000307059 -0.00152159 -0.00206087 -0.000431078
internal_weight=0 882.453 871.398 788.697 750.911 666.421 627.424 52.9305 38.9978 24.9767
internal_count=17712 5439 5307 4898 4502 4072 3711 427 361 182
is_linear=0
shrinkage=0.00339094


Tree=32
num_leaves=11
num_cat=0
split_feature=0 26 61 0 56 53 36 39 31 6
split_gain=19.6332 14.0753 16.7271 14.7162 12.3221 12.7987 12.3944 20.5637 20.5863 15.3004
threshold=4.7404450000000005e-07 0.00013022600000000002 0.0034054400000000005 2.2684050000000003e-07 0.00080966200000000016 0.010001000000000001 1.7178050000000002e-06 7.6613700000000022e-06 1.6825750000000001e-07 0.0051677950000000011
decision_type=2 2 2 2 2 2 2 2 2 2
left_child=1 2 3 -1 -2 6 7 8 -6 -9
right_child=4 -3 -4 -5 5 -7 -8 9 -10 -11
leaf_value=0.00046482282670582672 0.00053412621464328242 -0.00084302323896116708 0.0012475506709085915 -0.0015682482024630667 -7.0363069605795158e-05 -0.0038113887168403165 0.002225907793002831 -0.0042253858584698246 0.0039427907509297783 -0.00065516116513634429
leaf_weight=84.015492400620133 757.87448589876294 415.35564307589084 99.712504051160067 77.829642170108855 407.51498587988317 9.8690175255760533 24.873755541630089 22.25115067884326 14.393421489745377 36.295176917687058
leaf_count=877 5205 5028 925 1137 3873 105 112 170 50 230
internal_value=0 -0.00045525 0.0001583 -0.000510917 0.000259076 -0.000144288 -6.55285e-05 -0.00018907 7.18582e-05 -0.00205787
internal_weight=0 676.913 261.558 161.845 1273.07 515.198 505.328 480.455 421.908 58.5463
internal_count=17712 7967 2939 2014 9745 4540 4435 4323 3923 400
is_linear=0
shrinkage=0.00339094


Tree=33
num_leaves=11
num_cat=0
split_feature=37 26 31 33 45 18 4 19 55 45
split_gain=20.183 19.5024 18.6134 16.7985 16.262 18.4561 27.342 16.4605 15.8226 22.1938
threshold=1.5171350000000002e-05 0.00011201400000000002 8.3519400000000017e-08 7.4511750000000013e-07 1.6939750000000002e-06 0.0007767780000000001 1.6123700000000003e-07 3.8370900000000011e-06 0.004781655000000001 2.1254400000000007e-06
decision_type=2 2 2 2 2 2 2 2 2 2
left_child=1 -1 4 -4 5 6 7 -2 9 -6
right_child=2 -3 3 -5 8 -7 -8 -9 -10 -11
leaf_value=0.00063258789073157042 0.0015400508146613655 -0.00053481448072374563 -0.0029996443101952333 0.00021130109147896435 0.00199468401308045 -0.0046187400798882805 0.0036162102911553779 -0.0048160505407448687 0.0022218494278361776 -0.0054634219812312035
leaf_weight=202.63385087857023 7.0979656446725157 852.27153691742569 18.354769107885659 667.79473237600178 9.8236689474433678 8.931755702942608 17.03831348195672 10.590443560853599 134.5418115099892 7.0868258569389573
leaf_count=2094 36 10113 199 4193 47 85 56 126 653 71
internal_value=0 -0.000309569 0.000385334 0.000120956 0.00130741 -0.000492224 0.000623552 -0.00224526 0.00183216 -0.00117221
internal_weight=0 1054.91 881.26 686.15 195.111 43.6585 34.7267 17.6884 151.452 16.9105
internal_count=17673 12207 5466 4392 1074 303 218 162 771 118
is_linear=0
shrinkage=0.00339094


Tree=34
num_leaves=11
num_cat=0
split_feature=37 30 26 52 12 16 25 39 18 54
split_gain=23.9243 23.4696 19.5661 13.7578 13.3849 13.5871 15.5475 13.3319 17.532 13.1786
threshold=1.5171350000000002e-05 1.2527900000000001e-05 0.00011201400000000002 0.00014585900000000003 2.6090250000000003e-07 2.4419050000000003e-07 3.2650100000000008e-05 4.8841050000000007e-06 0.0011848500000000001 0.71840250000000017
decision_type=2 2 2 2 2 2 2 2 2 2
left_child=2 9 -1 -4 5 6 -3 -6 -9 -2
right_child=1 4 3 -5 7 -7 -8 8 -10 -11
leaf_value=0.0006074869679088148 -0.00076439575865092286 -0.0013843359166715772 0.0022896335557056695 -0.00062042498500059612 0.0026679139278627767 -0.0042173795050911922 0.0020111103175574335 -0.0045380341280518207 0.00028010283773347304 0.0017558131217662923
leaf_weight=206.74089910369366 26.395993118174374 60.025367802008986 18.228594124317169 820.43890416622162 25.636967046186328 12.684399338439105 19.85341739282012 7.8983599077910176 555.03637096704915 181.1673378655687
leaf_count=2094 204 534 145 9968 150 146 108 95 3359 870
internal_value=0 0.000432871 -0.000323511 -0.000554248 0.000127059 -0.00106378 -0.000520124 0.000316713 0.000204766 0.00142893
internal_weight=0 888.698 1045.41 838.667 681.135 92.5632 79.8788 588.572 562.935 207.563
internal_count=17673 5466 12207 10113 4392 788 642 3604 3454 1074
is_linear=0
shrinkage=0.00339094


Tree=35
num_leaves=11
num_cat=0
split_feature=25 38 6 25 39 56 43 53 52 1
split_gain=16.0019 24.7203 15.9969 12.8813 14.959 16.1401 18.0748 12.815 12.6278 9.57168
threshold=2.5151250000000004e-05 0.00018391850000000002 0.0023386850000000005 1.4294500000000002e-05 3.2536100000000003e-06 0.00053318300000000012 6.4380450000000008e-05 0.0084529950000000031 0.0011045650000000003 1.8135200000000002e-05
decision_type=2 2 2 2 2 2 2 2 2 2
left_child=1 -1 -2 -3 9 -6 -7 -8 -4 -5
right_child=2 3 8 4 5 6 7 -9 -10 -11
leaf_value=0.00098864016478605508 0.0019402232213439341 -0.00077974460668644259 0.00013807631379943872 0.003019519654522729 -0.0031015519678761492 -0.0040116247851500128 0.00099173148692888462 -0.0017393174029032565 0.0020695172259234005 0.00029996219414105726
leaf_weight=163.16129901865497 69.913624808192253 542.74220163328573 685.89887133054435 15.022569121792911 29.348922185134143 12.338065245188771 69.091439202427864 26.602967424318194 40.476857976987958 269.19103651260957
leaf_count=1395 366 7414 4332 88 347 179 494 302 210 2546
internal_value=0 -0.000227536 0.000399996 -0.000434694 8.36154e-06 -0.00090541 -0.000285359 0.000216665 0.000248855 0.000453889
internal_weight=0 1127.5 796.289 964.337 421.595 137.381 108.032 95.6944 726.376 284.214
internal_count=17673 12765 4908 11370 3956 1322 975 796 4542 2634
is_linear=0
shrinkage=0.00339094


Tree=36
num_leaves=11
num_cat=0
split_feature=44 39 52 29 38 35 36 61 40 29
split_gain=9.13295 14.1316 9.34292 10.2328 10.3306 20.0321 13.7803 9.85031 9.17325 9.03809
threshold=1.2429600000000004e-07 1.2261200000000003e-06 0.00014261250000000003 1.6231650000000003e-06 0.00022594050000000003 9.3135900000000015e-08 1.5683850000000003e-07 0.0032001500000000006 1.5783150000000002e-06 6.4769450000000012e-07
decision_type=2 2 2 2 2 2 2 2 2 2
left_child=1 9 -3 4 5 -4 -7 8 -6 -1
right_child=-2 2 3 -5 7 6 -8 -9 -10 -11
leaf_value=-0.00028399653281732808 0.00019342316255030633 0.0025131440233628092 -0.0010500569005961588 0.00033065967592365935 -0.0033469386688847799 0.0025513129699950548 -0.0010771509973175977 -0.00093644664126402567 -0.00016408726855932708 0.0012975779306580789
leaf_weight=76.118131477851421 1244.6369988378137 10.138544414192436 113.90802824823186 97.750984016340226 42.850219308864325 37.898843439295888 16.525746745057404 174.46159400744364 14.331390416249631 88.355400443542749
leaf_count=912 9385 67 1841 1000 773 296 229 2448 191 527
internal_value=0 -0.000296726 -0.000577037 -0.000645235 -0.000885756 -0.000239963 0.00143407 -0.00134988 -0.00257154 0.000562992
internal_weight=0 672.339 507.865 497.727 399.976 168.333 54.4246 231.643 57.1816 164.474
internal_count=17669 8284 6845 6778 5778 2366 525 3412 964 1439
is_linear=0
shrinkage=0.00339094


Tree=37
num_leaves=11
num_cat=0
split_feature=53 1 15 52 36 40 15 10 0 40
split_gain=14.1566 11.6681 22.757 11.7397 11.379 10.0734 10.4881 19.7317 9.50432 20.6853
threshold=0.0078179500000000023 0.00032093500000000006 0.00013570100000000003 0.00057285400000000014 3.5080000000000005e-06 8.6031550000000012e-06 1.4357800000000002e-05 0.00086106750000000014 3.6656400000000004e-06 1.0806700000000001e-05
decision_type=2 2 2 2 2 2 2 2 2 2
left_child=5 2 4 -3 8 6 7 -1 9 -2
right_child=1 3 -4 -5 -6 -7 -8 -9 -10 -11
leaf_value=-0.001491192751467437 6.4188828067762596e-05 0.0021243001568623057 -0.0043688292877308455 -0.0014668224329043604 -0.0044528261270147355 0.0035326141974816256 -0.0040831918046605039 0.0049204817492542541 0.0009784199126034543 -0.0035910277243983613
leaf_weight=65.243670770898461 1591.150082919281 55.733019682578743 12.4832831248641 11.758176603354512 5.4876939710229626 3.8917211517691603 14.739160671830176 5.183088243007659 128.69116664910689 17.159051815979183
leaf_count=900 15327 219 115 89 48 13 141 9 641 167
internal_value=0 9.78304e-05 4.39196e-05 0.00147288 7.78875e-05 -0.00128036 -0.0015402 -0.000961017 9.46254e-05 2.30308e-05
internal_weight=0 1822.46 1754.97 67.4912 1742.49 89.0576 85.1659 70.4268 1737 1608.31
internal_count=17669 16606 16298 308 16183 1063 1050 909 16135 15494
is_linear=0
shrinkage=0.00339094


Tree=38
num_leaves=11
num_cat=0
split_feature=0 12 4 26 15 27 34 17 43 53
split_gain=12.3997 16.6447 14.7199 12.2289 15.1227 15.9468 23.0971 17.5512 17.1147 13.3833
threshold=6.898325000000001e-07 1.5682050000000004e-07 2.3868800000000008e-07 0.00029614200000000005 9.8414500000000021e-06 8.3597150000000019e-07 1.4044900000000002e-05 5.0236950000000012e-06 2.6062550000000003e-05 0.0079606500000000014
decision_type=2 2 2 2 2 2 2 2 2 2
left_child=1 2 3 4 5 6 8 -8 9 -1
right_child=-2 -3 -4 -5 -6 -7 7 -9 -10 -11
leaf_value=-0.0037058831503296915 0.00031577460059811871 -0.0010392388955820294 0.0019510003830105456 -0.003499776620281829 0.0016506679271500772 -0.0006998758948176246 0.003037476216397461 -0.0014776720565093573 -0.0012168360464644391 0.0009314064740722698
leaf_weight=6.7043492728844276 959.91037021251395 222.90353771764785 41.842883631121367 11.149707445874808 54.901037705130875 332.00042152218521 51.321244578808546 11.34047796204686 94.202291717287153 124.86477824719623
leaf_count=105 6805 2427 317 178 445 4510 294 153 1319 1116
internal_value=0 -0.000230146 1.7297e-05 -0.000101565 -4.05073e-05 -0.000193151 0.000387913 0.00219584 -0.000116306 0.000668537
internal_weight=0 951.231 728.327 686.484 675.335 620.434 288.433 62.6617 225.771 131.569
internal_count=17669 10864 8437 8120 7942 7497 2987 447 2540 1221
is_linear=0
shrinkage=0.00339094


Tree=39
num_leaves=11
num_cat=0
split_feature=37 57 61 39 31 1 38 37 34 44
split_gain=11.0539 18.0711 22.5139 13.8946 11.7658 11.1313 14.346 14.4504 13.8369 14.3974
threshold=1.5171350000000002e-05 0.014579250000000002 0.0035230950000000004 1.1892550000000002e-06 2.8242450000000004e-08 1.2879400000000002e-05 0.00022594050000000003 7.3651400000000003e-06 1.4044900000000002e-05 9.7320650000000016e-08
decision_type=2 2 2 2 2 2 2 2 2 2
left_child=3 2 -2 4 -1 -5 8 -8 -7 -10
right_child=1 -3 -4 5 -6 6 7 -9 9 -11
leaf_value=0.0011947108401995908 0.00037383619598664646 0.0022238359769424514 -0.0018032586419313131 -0.0011888014275160963 -0.0017923931632509227 -0.00064784973236636215 -0.0013140837302096334 -8.8088230141039758e-05 0.002585637335822549 -0.00082392354390309059
leaf_weight=121.60738368425518 762.09028377104551 54.354296298697591 57.860367336310446 143.58192391367629 16.341127949766815 40.636131346225739 141.35481019178405 504.32750616641715 58.396736597642303 17.834586204960942
leaf_count=1005 4672 280 488 2267 117 607 2244 5407 361 227
internal_value=0 0.000345124 0.000217707 -0.000171296 0.000826755 -0.000324617 -0.000159971 -0.000358782 0.000927586 0.00177608
internal_weight=0 874.305 819.951 1044.08 137.949 906.132 762.55 645.682 116.867 76.2313
internal_count=17675 5440 5160 12235 1122 11113 8846 7651 1195 588
is_linear=0
shrinkage=0.00339094


Tree=40
num_leaves=11
num_cat=0
split_feature=2 54 45 39 45 33 12 19 36 45
split_gain=12.1927 25.3093 14.3981 10.4371 14.5117 13.6353 14.5763 14.5414 18.5253 14.8281
threshold=0.010416050000000001 0.74342000000000008 8.2801600000000014e-06 1.1892550000000002e-06 1.0157450000000003e-06 2.0627700000000004e-06 1.7008800000000002e-06 1.4110850000000002e-05 9.8101900000000011e-07 2.8705400000000006e-06
decision_type=2 2 2 2 2 2 2 2 2 2
left_child=3 2 -2 -1 -5 7 -7 8 9 -6
right_child=1 -3 -4 4 5 6 -8 -9 -10 -11
leaf_value=0.00086094952951249826 -0.00099192789290194214 -0.0041570573740744212 0.0015849863162654498 -0.00064740996927122193 -8.4353124350207462e-06 -0.0012387106962945898 0.0024241251876618232 0.0027336667628860738 -0.0028266699786859413 0.00095064453658191134
leaf_weight=140.0007140818052 28.634879330173135 9.8684241129085404 153.27424450032413 413.8037455175072 730.65562537219375 129.27092268969864 12.870304472744463 25.140919202007353 22.404779080301523 246.84621753171086
leaf_count=1122 147 81 734 5908 6821 1003 46 125 155 1533
internal_value=0 0.000876178 0.00117182 -2.31199e-05 -0.000102244 9.07194e-05 -0.000889346 0.00022791 0.000162123 0.000233581
internal_weight=0 191.778 181.909 1720.99 1580.99 1167.19 142.141 1025.05 999.907 977.502
internal_count=17675 962 881 16713 15591 9683 1049 8634 8509 8354
is_linear=0
shrinkage=0.00339094


Tree=41
num_leaves=11
num_cat=0
split_feature=45 26 39 1 38 35 36 10 30 1
split_gain=13.5007 14.3784 10.9322 12.0674 12.3185 12.5442 17.5478 11.6368 11.4109 11.2049
threshold=2.8705400000000006e-06 0.00058636800000000009 1.1892550000000002e-06 1.2879400000000002e-05 0.00022594050000000003 9.3615200000000006e-08 1.5559000000000003e-07 0.00029569350000000009 3.4868000000000006e-06 1.0336450000000002e-05
decision_type=2 2 2 2 2 2 2 2 2 2
left_child=1 2 9 7 5 -5 8 -4 -7 -1
right_child=-2 -3 3 4 -6 6 -8 -9 -10 -11
leaf_value=-0.0029627605849180351 0.00047851194087834305 -0.0039563730462629501 -0.00040479594558461284 -0.00058421032359028699 -0.00021563618450316275 2.0808284758129384e-05 -0.00077068068740920219 -0.0024824788381357546 0.0035826460961577125 0.0010207596410592692
leaf_weight=7.7098923260346046 627.03223569691181 10.363063951022921 88.730740408413112 39.520043235272169 868.79692746466026 13.395074104424564 22.123711816035211 48.028545355889946 42.572339858859777 135.28896594466642
leaf_count=101 3814 109 1351 606 9183 120 294 906 172 1019
internal_value=0 -0.000128564 -9.42894e-05 -0.000207341 -7.53508e-05 0.000949616 0.00173437 -0.00114857 0.00273718 0.000785054
internal_weight=0 1276.53 1266.17 1123.17 986.408 117.611 78.0911 136.759 55.9674 142.999
internal_count=17675 13861 13752 12632 10375 1192 586 2257 292 1120
is_linear=0
shrinkage=0.00339094


Tree=42
num_leaves=11
num_cat=0
split_feature=7 15 45 45 33 33 26 37 38 36
split_gain=12.5008 11.0275 9.5134 8.81215 12.7066 14.9474 14.5612 17.7353 12.1543 11.9285
threshold=0.00014259600000000002 0.00014204500000000001 1.8021200000000003e-05 4.9852800000000011e-07 2.9161400000000006e-07 2.3041850000000001e-07 0.00011609350000000002 8.5805600000000028e-06 0.00029501350000000001 1.1586500000000003e-07
decision_type=2 2 2 2 2 2 2 2 2 2
left_child=1 3 -2 9 5 -5 -6 8 -8 -1
right_child=2 -3 -4 4 6 -7 7 -9 -10 -11
leaf_value=-0.0010426824455995246 0.003110752704867529 -0.0038176352446598286 -0.00024938620214206056 0.00055200420333681812 0.0012035156272401154 -0.0014683868944905928 -0.00031522075277830259 0.00016766364689296972 -0.0018633567884212738 0.0034777387783934089
leaf_weight=9.5461823130026477 25.472951079718769 7.8260932322591534 14.2063224138692 60.259579851292074 122.35721761640161 133.09713714011014 200.52036531362683 1227.2014601058327 82.553429699968547 17.972047648392618
leaf_count=118 83 79 68 645 1050 2005 2825 9444 1322 108
internal_value=0 -3.22999e-06 0.00190021 1.40988e-05 -1.45776e-05 -0.000834942 8.24959e-05 -8.42409e-06 -0.000772693 0.00189019
internal_weight=0 1861.33 39.6793 1853.51 1825.99 193.357 1632.63 1510.28 283.074 27.5182
internal_count=17747 17596 151 17517 17291 2650 14641 13591 4147 226
is_linear=0
shrinkage=0.00339094


Tree=43
num_leaves=11
num_cat=0
split_feature=12 29 45 52 40 29 45 34 12 0
split_gain=11.1031 13.5844 12.0224 11.326 8.82019 10.4193 8.31107 10.9279 23.903 12.7784
threshold=1.7586150000000002e-06 2.1450350000000004e-05 2.1917200000000004e-05 0.00029506400000000005 2.1652100000000006e-05 1.3564200000000001e-05 4.9852800000000011e-07 1.3884700000000001e-05 7.6864950000000011e-08 3.3814800000000004e-07
decision_type=2 2 2 2 2 2 2 2 2 2
left_child=1 2 6 -2 -5 -6 -1 9 -9 -8
right_child=3 -3 -4 4 5 -7 7 8 -10 -11
leaf_value=0.0017828727721521142 -0.001919453245764254 -0.0027269034278838721 0.0043794748357964177 0.002690001015678338 0.0024143495890064344 -0.0024852026945338238 -0.00010206456479851952 0.0019132346355963988 -9.4477613227706489e-06 -0.0016060493312842082
leaf_weight=28.882192107848823 9.5006825979799014 20.065903120674193 6.4006432741880408 43.863642406649888 8.7452754229307192 9.3347271122038347 186.89412118541077 77.61586346803233 1404.7880439572036 99.753007485065609
leaf_count=226 62 198 22 140 32 69 2307 640 12445 1606
internal_value=0 -8.94036e-06 2.20559e-05 0.00134577 0.00188075 -5.91001e-05 4.24725e-06 -2.51629e-05 9.16899e-05 -0.000630563
internal_weight=0 1824.4 1804.33 71.4443 61.9436 18.08 1797.93 1769.05 1482.4 286.647
internal_count=17747 17444 17246 303 241 101 17224 16998 13085 3913
is_linear=0
shrinkage=0.00339094


Tree=44
num_leaves=11
num_cat=0
split_feature=7 33 45 45 18 15 37 39 36 19
split_gain=9.75497 8.34431 8.2766 16.2685 9.6787 8.23952 8.1338 21.822 8.74065 10.552
threshold=0.00014259600000000002 8.6349400000000021e-06 5.1717550000000006e-07 5.4526600000000011e-07 0.00028459800000000006 0.00014204500000000001 8.7157200000000017e-06 1.9526600000000005e-06 1.2678850000000002e-07 1.9177800000000004e-06
decision_type=2 2 2 2 2 2 2 2 2 2
left_child=2 -2 4 -4 -1 6 7 8 9 -5
right_child=1 -3 3 5 -6 -7 -8 -9 -10 -11
leaf_value=-9.417606050774431e-05 0.00044770298784413442 0.0036554659270316443 -0.0032449541771444475 -0.00051910440121534398 0.0029829711335248909 -0.0034655997058926549 0.00017614912235912946 -0.0018391014373348542 -0.00042098016455370123 0.0011048819042899993
leaf_weight=22.77421209635213 24.851854612119496 14.61890265252441 17.011787680443376 70.696971585508436 22.291738318279386 6.9682831801474086 1233.6276009799913 89.942985701840371 266.06656251801178 126.52971083670855
leaf_count=263 111 40 303 911 118 79 9534 1481 3643 1264
internal_value=0 0.00169777 1.11947e-05 -2.44102e-05 0.00143343 7.13673e-06 2.25926e-05 -0.000318296 -1.9061e-05 0.000519155
internal_weight=0 39.4708 1855.91 1810.84 45.066 1793.83 1786.86 553.236 463.293 197.227
internal_count=17747 151 17596 17215 381 16912 16833 7299 5818 2175
is_linear=0
shrinkage=0.00339094


Tree=45
num_leaves=11
num_cat=0
split_feature=40 44 37 61 52 39 52 0 54 53
split_gain=17.1674 11.2604 13.7991 9.75902 9.45818 14.8742 14.7152 9.19244 10.295 12.227
threshold=1.5444600000000002e-06 8.4875300000000014e-08 8.5805600000000028e-06 0.0029834850000000006 0.00074292750000000006 2.3096300000000007e-06 0.00075433800000000012 1.0357550000000001e-06 0.72508750000000011 0.008721880000000003
decision_type=2 2 2 2 2 2 2 2 2 2
left_child=7 -2 -3 -4 -5 -6 -7 8 9 -1
right_child=1 2 3 4 5 6 -8 -9 -10 -11
leaf_value=-0.00026842169724069831 0.0025156723963527701 -0.0011950941628065918 0.0023888896881516385 0.00053493736957814682 0.0018933667464504193 -0.005091202661790183 -0.00027769381196328488 -0.0040447151671601286 -0.00072802361600286076 0.0011793448367526218
leaf_weight=317.92573043750599 24.20503355935216 73.322553154081106 24.760062478482723 575.44926790008321 35.560509662609547 6.6208847295492879 323.47278642375022 7.0396998962387434 408.41302552167326 84.095799342729151
leaf_count=3813 193 1150 132 3609 276 88 2550 81 5138 759
internal_value=0 0.00026747 0.000212571 0.000321074 0.000263964 -0.000160734 -0.000388299 -0.000385723 -0.000349306 3.42864e-05
internal_weight=0 1063.39 1039.19 965.864 941.103 365.654 330.094 817.474 810.435 402.022
internal_count=17789 7998 7805 6655 6523 2914 2638 9791 9710 4572
is_linear=0
shrinkage=0.00339094


Tree=46
num_leaves=11
num_cat=0
split_feature=37 36 27 30 0 10 52 60 57 52
split_gain=17.5503 16.303 18.8936 17.9434 13.6301 13.5572 27.3524 22.8458 11.8533 16.5904
threshold=1.5833400000000007e-05 1.956805e-07 1.4310800000000002e-06 1.4314250000000001e-05 4.8608450000000009e-07 0.0016351400000000002 0.0010724600000000001 0.00025171150000000006 0.012194450000000001 0.00076542700000000006
decision_type=2 2 2 2 2 2 2 2 2 2
left_child=-1 2 -2 4 -3 6 -5 -7 -6 -10
right_child=1 3 -4 5 8 7 -8 -9 9 -11
leaf_value=-0.00030665978376596151 0.0026713733615406966 -0.0016478878867430228 -0.0042509943634713981 -0.0011613665814308933 0.0039394677656092612 0.00069150766167304096 0.0025185737553203471 -0.0021849940264621532 0.0019629039955455568 -0.00024582765795109752
leaf_weight=1029.2573288346175 5.3110905066132572 15.824663130566476 16.501913267187774 159.12599506508559 20.475107861682773 401.60995585750788 26.230007896199822 33.474584500305355 116.14169014152139 57.480604195035994
leaf_count=12511 16 160 186 1263 61 2239 115 283 571 384
internal_value=0 0.000350952 -0.00247942 0.000428581 0.00128377 0.000136869 -0.000627593 0.000464701 0.00153343 0.00122933
internal_weight=0 852.176 21.813 830.363 209.922 620.441 185.356 435.085 194.097 173.622
internal_count=17789 5278 202 5076 1176 3900 1378 2522 1016 955
is_linear=0
shrinkage=0.00339094


Tree=47
num_leaves=11
num_cat=0
split_feature=37 31 45 36 4 33 57 29 45 60
split_gain=17.2203 12.7612 15.6591 15.4604 14.8797 10.9392 10.7911 10.299 14.746 11.4967
threshold=1.5833400000000007e-05 6.7447500000000009e-08 1.7129850000000002e-06 1.9286950000000002e-07 2.9057450000000006e-07 1.3063200000000002e-06 0.014579250000000002 1.8132900000000002e-06 1.7950200000000001e-06 0.00020242700000000001
decision_type=2 2 2 2 2 2 2 2 2 2
left_child=5 2 4 -3 -2 -1 7 -5 -9 -10
right_child=1 3 -4 6 -6 -7 -8 8 9 -11
leaf_value=-0.00028021409376318963 -0.0031462840358716282 -0.0042155218557091718 0.0023113439399318936 0.0012707066095504944 0.0027937655719698666 -0.005482068550755774 0.0018158956317418137 -0.0046127671341164439 0.00033555808405897637 -0.00071292828067720927
leaf_weight=1022.3213581615128 12.908224245533349 8.0653455387800914 69.344707546755672 82.370862428098917 6.5771575942635527 3.8564134221523991 47.000033535994589 6.9688159525394431 456.73794292658567 162.07400601264089
leaf_count=12444 149 119 275 445 21 67 243 85 2772 1169
internal_value=0 0.00034733 0.00155843 0.000204009 -0.00105611 -0.00030454 0.000256662 0.000150257 1.95905e-07 5.92135e-05
internal_weight=0 852.047 88.8301 763.217 19.4854 1026.18 755.152 708.152 625.781 618.812
internal_count=17789 5278 445 4833 170 12511 4714 4471 4026 3941
is_linear=0
shrinkage=0.00339094


Tree=48
num_leaves=11
num_cat=0
split_feature=29 44 34 46 39 39 0 56 27 61
split_gain=16.2913 12.6928 17.4327 14.1896 15.47 12.1448 11.889 11.7515 10.3958 9.9066
threshold=2.5962500000000003e-06 8.7409300000000015e-08 1.7750650000000003e-05 4.8808450000000009e-05 1.50659e-06 1.2261200000000003e-06 5.0357250000000002e-07 0.00034446700000000005 2.6199950000000004e-06 0.0035230950000000004
decision_type=2 2 2 2 2 2 2 2 2 2
left_child=1 3 -3 5 -5 -1 8 -6 -4 -8
right_child=-2 2 6 4 7 -7 9 -9 -10 -11
leaf_value=0.00045796035237308046 0.00038703803937460311 -0.0014428773145368653 -0.00083892802704675802 0.0024890421574459381 0.0027969598904312234 -0.0010785749318278283 0.00017679213893655299 -0.00085007530313339495 -0.0047269869621892231 -0.0015246887586323351
leaf_weight=136.93988127913326 695.63467163732275 176.76321662263945 143.2778357216157 56.793504806235433 12.372153384145347 102.5180232427083 437.12367977807298 43.471815445460379 7.7235015388578168 42.366015537641943
leaf_count=1228 4702 2799 1852 350 90 1769 3696 644 113 491
internal_value=0 -0.000268973 -0.000503464 0.000266481 0.00125545 -0.00019812 -0.00023759 -1.33154e-06 -0.00106467 2.26985e-05
internal_weight=0 1159.35 807.254 352.095 112.637 239.458 630.491 55.844 151.001 479.49
internal_count=17734 13032 8951 4081 1084 2997 6152 734 1965 4187
is_linear=0
shrinkage=0.00339094


Tree=49
num_leaves=11
num_cat=0
split_feature=29 44 46 46 38 45 16 22 53 27
split_gain=13.9015 12.2862 16.5499 15.2434 14.551 11.9264 10.8555 9.38523 10.7806 9.32878
threshold=2.5962500000000003e-06 8.7409300000000015e-08 6.309870000000002e-05 4.8808450000000009e-05 0.00028120350000000006 8.8450850000000009e-07 6.3663800000000009e-08 2.6814000000000004e-05 0.008762215000000002 2.3521700000000002e-05
decision_type=2 2 2 2 2 2 2 2 2 2
left_child=1 3 -3 6 5 -5 7 8 -1 -2
right_child=9 2 -4 4 -6 -7 -8 -9 -10 -11
leaf_value=-0.0016457357754150245 0.00041936763287515124 -0.0014531000503805894 -0.00023663985948316801 0.0006600167946432526 -0.0029372172279001373 0.0029699396327575521 -0.0013135190133361156 0.00077443861619977828 0.0026518089795547887 -0.0020137840699809848
leaf_weight=41.933485369663686 681.55813813721761 161.49967732653022 631.90071532968432 64.818288114387542 7.8658667434938243 43.493868372403085 71.788522731978446 118.01991260470822 7.0988046480342737 17.644320536404848
leaf_count=638 4564 2618 6333 672 148 264 1073 1244 42 138
internal_value=0 -0.000251471 -0.000486269 0.000271108 0.00127508 0.0016076 -0.000216644 0.000254124 -0.00097595 0.000354628
internal_weight=0 1148.42 793.4 355.019 116.178 108.312 238.841 167.052 49.0323 699.202
internal_count=17734 13032 8951 4081 1084 936 2997 1924 680 4702
is_linear=0
shrinkage=0.00339094


Tree=50
num_leaves=11
num_cat=0
split_feature=29 45 40 40 42 56 33 45 53 44
split_gain=12.8514 9.26158 19.2903 11.4721 14.4559 11.1045 9.76043 9.65214 13.9046 10.1895
threshold=2.5962500000000003e-06 5.2883250000000007e-06 7.7940700000000018e-06 6.3474350000000012e-06 0.028924700000000001 0.0011559250000000001 1.8262800000000003e-06 5.6578000000000011e-06 0.0084147500000000021 2.0219050000000004e-06
decision_type=2 2 2 2 2 2 2 2 2 2
left_child=-1 2 3 -2 -5 7 -4 -3 -9 -10
right_child=1 5 6 4 -6 -7 -8 8 9 -11
leaf_value=-0.00024290869875307741 0.00057256565444438554 -0.0028532762953360695 0.0039975166797853734 -0.004286145472377159 0.0013601840559769457 -0.0037012466012459957 0.00049826625826447895 0.0017404501552948299 -0.00060640133129950813 0.0010007422746187262
leaf_weight=1139.3151869564317 333.0632011666894 11.994766319170592 27.54136816598475 11.951577024534346 7.8841953985393038 8.6139988321810943 14.263987600803373 50.673073111101985 178.75521021522582 59.595249721780419
leaf_count=13032 2499 122 83 104 35 98 83 237 1160 281
internal_value=0 0.000339408 0.000683511 0.000420372 -0.00202349 -9.7422e-05 0.00284055 1.29842e-05 0.000142168 -0.000199338
internal_weight=0 704.337 394.704 352.899 19.8358 309.632 41.8054 301.018 289.024 238.35
internal_count=17734 4702 2804 2638 139 1898 166 1800 1678 1441
is_linear=0
shrinkage=0.00339094


Tree=51
num_leaves=11
num_cat=0
split_feature=37 33 30 56 57 45 45 52 33 7
split_gain=16.1204 16.8347 13.4933 16.1478 15.935 18.0165 19.1287 17.7596 15.0251 15.4281
threshold=1.5833400000000007e-05 2.3496000000000003e-07 1.4573850000000001e-05 0.0013940000000000001 0.013292300000000002 3.1545200000000002e-06 2.7140950000000005e-06 0.00042174500000000001 5.1527700000000007e-07 1.4997700000000002e-05
decision_type=2 2 2 2 2 2 2 2 2 2
left_child=1 -1 4 -4 -2 6 7 -6 -9 -10
right_child=2 -3 3 -5 5 -7 -8 8 9 -11
leaf_value=0.0011476151398074276 0.0017566952499419597 -0.00039360412839800315 0.00017401202789405661 -0.0043332981285120458 0.0026609969808482031 0.0028090681248970823 -0.0051507359364431383 0.0031350725169358548 -0.0050194848657262991 -0.00050857305612533356
leaf_weight=88.295803232118487 144.81435926677659 934.65438818791881 605.3068510890007 8.3613395541906339 17.769595958292484 19.051405970007181 9.2889770455658418 6.6411421112716189 12.782977537252007 25.738497057929635
leaf_count=910 715 11714 3810 84 94 77 94 31 148 201
internal_value=0 -0.000259094 0.000372483 0.000105808 0.00106017 -4.12009e-05 -0.000826953 -0.000123212 -0.0012603 -0.00208887
internal_weight=0 1022.95 849.755 613.668 236.087 91.2726 72.2212 62.9322 45.1626 38.5215
internal_count=17878 12624 5254 3894 1360 645 568 474 380 349
is_linear=0
shrinkage=0.00339094


Tree=52
num_leaves=11
num_cat=0
split_feature=37 38 31 0 35 11 44 31 46 45
split_gain=17.3387 17.0806 16.3242 18.5432 15.1128 19.2126 14.2514 14.0259 13.7474 13.674
threshold=1.5171350000000002e-05 0.00018391850000000002 9.715875000000001e-08 2.5317200000000004e-07 9.2544050000000021e-08 2.4347900000000005e-06 8.7409300000000015e-08 1.0119750000000002e-07 4.8329700000000006e-05 6.927900000000001e-07
decision_type=2 2 2 2 2 2 2 2 2 2
left_child=1 8 3 -2 -3 6 9 -4 -1 -6
right_child=2 4 7 -5 5 -7 -8 -9 -10 -11
leaf_value=0.00037540129383180289 -0.0035972666817940067 -0.0014287806556184958 -0.003819146381167269 0.0012534875386841285 -0.0020657683243241695 -0.00049471893926193711 -0.00050650608754285447 0.00014982120026467004 0.0034982944562481594 0.0025874677971355451
leaf_weight=147.56106446590275 8.4337171297520381 152.21265331050381 9.5024106223136169 258.79421279905364 7.3965681651607147 564.34111585048959 39.832965794950724 605.78536156751215 17.522471189498901 58.621170143596828
leaf_count=1368 90 2789 114 1460 89 7110 582 3821 73 382
internal_value=0 -0.000265719 0.000387957 0.00108654 -0.000466094 -0.000245065 0.00107329 8.24614e-05 0.000725591 0.00203379
internal_weight=0 987.488 882.516 267.228 822.404 670.192 105.851 615.288 165.084 66.0177
internal_count=17878 12393 5485 1550 10952 8163 1053 3935 1441 471
is_linear=0
shrinkage=0.00339094


Tree=53
num_leaves=11
num_cat=0
split_feature=37 39 47 34 44 26 14 36 31 56
split_gain=18.2729 18.6969 15.5002 14.1998 21.1756 13.4268 16.5473 19.2173 14.8908 15.3973
threshold=1.5171350000000002e-05 1.2261200000000003e-06 3.2220750000000006e-07 1.3884700000000001e-05 8.2502900000000002e-08 0.00041334350000000005 0.0028398050000000004 4.9763600000000016e-07 8.3519400000000017e-08 0.00079639450000000003
decision_type=2 2 2 2 2 2 2 2 2 2
left_child=1 2 -1 -3 -5 6 7 8 -2 -10
right_child=5 3 -4 4 -6 -7 -8 -9 9 -11
leaf_value=0.00036232066674475117 0.0014453992536149092 -0.0014313729849349118 0.0035052090884108798 0.0015356086608300861 -0.00047524646120881482 0.00014916263263546601 0.0027973611691984438 -0.0032002627969383649 -0.0033177550256146496 0.0010870961708486311
leaf_weight=149.34417254524305 132.50910721486434 148.85482428316027 19.843740913085639 66.065412440802902 595.57359276898205 650.59620326664299 50.83690152131021 13.115836561657487 16.595188347622752 18.152515528723598
leaf_count=1368 715 2791 73 482 7679 4111 196 113 219 131
internal_value=0 -0.000272184 0.000749045 -0.00048678 -0.000271843 0.000400268 0.00110105 0.00060956 0.00092658 -0.00101654
internal_weight=0 979.682 169.188 810.494 661.639 881.806 231.21 180.373 167.257 34.7477
internal_count=17878 12393 1441 10952 8161 5485 1374 1178 1065 350
is_linear=0
shrinkage=0.00339094


Tree=54
num_leaves=11
num_cat=0
split_feature=37 57 61 30 0 38 25 53 29 44
split_gain=21.5618 15.2673 21.9648 13.8978 12.4401 12.9846 14.7733 12.8285 11.8152 13.0351
threshold=1.5171350000000002e-05 0.014579250000000002 0.0036062300000000006 2.3568850000000005e-06 3.4868950000000007e-07 0.0005233280000000001 2.2637600000000005e-05 0.0077606800000000016 1.3158750000000001e-06 2.8047300000000005e-07
decision_type=2 2 2 2 2 2 2 2 2 2
left_child=3 2 4 -1 -2 -6 -7 -8 9 -9
right_child=1 -3 -4 -5 5 6 7 8 -10 -11
leaf_value=0.0014065275675922834 -0.0014947336247702449 0.0021153562032112405 -0.0044165064044257444 -0.00041595488587723611 0.0019523855482416132 -0.0033135967741734561 -0.0033998081794435193 -0.00061688348579580813 0.00032929787846128244 0.0033577063219848192
leaf_weight=49.85038367472589 38.553087310865521 55.952503012493253 10.291012099012731 913.1332233697176 60.584329816978425 11.652547057718037 9.1645569186657649 12.668236484751104 656.27777510788292 29.937186663970351
leaf_count=396 394 268 116 12000 329 136 98 79 3976 80
internal_value=0 0.000412999 0.000295381 -0.0003198 0.000359827 0.000453877 0.00032476 0.000389443 0.000444164 0.00215877
internal_weight=0 885.081 829.129 962.984 818.838 780.285 719.7 708.048 698.883 42.6054
internal_count=17872 5476 5208 12396 5092 4698 4369 4233 4135 159
is_linear=0
shrinkage=0.00339094


Tree=55
num_leaves=11
num_cat=0
split_feature=4 4 31 18 45 57 0 7 31 29
split_gain=20.8007 11.5425 11.4607 12.5771 11.8072 13.7194 12.5541 10.312 10.3907 9.67082
threshold=2.4101200000000007e-07 2.4468550000000004e-07 1.5712550000000002e-08 0.00026963050000000004 3.0810450000000004e-06 0.013862850000000001 3.4868950000000007e-07 1.8317000000000004e-05 7.3497000000000013e-08 1.5290650000000002e-06
decision_type=2 2 2 2 2 2 2 2 2 2
left_child=2 -2 3 -1 7 6 -6 -4 -9 -3
right_child=1 9 4 -5 5 -7 -8 8 -10 -11
leaf_value=-0.0027015647557356772 0.0032226605181787677 0.001435761359041893 -0.00037905242164295905 0.0019705147930285864 -0.0039104054723721757 0.0037021931593712986 0.0010515268045748138 -2.3929096319937693e-05 -0.0054244484693093623 0.00025590549898105359
leaf_weight=6.851359416730701 16.261821299791336 90.701756902970374 966.33578644460067 43.98877739161253 6.6331245601177207 16.477616816759109 25.924707675352693 6.8603211641311637 8.639669578522442 654.93914135592058
leaf_count=107 73 614 12124 289 89 72 146 39 131 4188
internal_value=0 0.000466147 -0.000264879 0.00129145 -0.000343254 0.00126397 -3.1888e-06 -0.000425187 -0.00310605 0.000401734
internal_weight=0 761.903 1081.71 50.8401 1030.87 49.0354 32.5578 981.836 15.5 745.641
internal_count=17872 4875 12997 396 12601 307 235 12294 170 4802
is_linear=0
shrinkage=0.00339094


Tree=56
num_leaves=11
num_cat=0
split_feature=7 25 57 61 45 31 53 44 18 38
split_gain=20.5995 15.8152 14.2962 21.7093 13.0059 12.6116 12.0076 10.878 10.4079 8.74583
threshold=1.1839150000000002e-05 2.0762550000000003e-05 0.014579250000000002 0.0035350800000000003 1.2691850000000001e-06 1.5712550000000002e-08 0.007839185000000002 8.1596300000000001e-08 0.00027148550000000003 0.00015699450000000002
decision_type=2 2 2 2 2 2 2 2 2 2
left_child=1 5 3 -2 -3 7 -7 8 -1 -8
right_child=2 4 -4 -5 -6 6 9 -9 -10 -11
leaf_value=-0.0016048207597176992 0.0003961860032455208 0.0013504294261295847 0.0019619813795243518 -0.0019045058603038604 -0.0053606620077713413 -0.0018825118454275183 -0.0028352569055758981 -0.0019371653888034948 0.0027423466585213556 -0.00021191888139205262
leaf_weight=6.7245113374665371 862.73190421424806 3.8599365837872019 60.668215326499194 48.924504020251334 11.70864708535373 56.308470795862377 14.166714586317537 8.7550053885206562 36.595268172211945 731.52639915375039
leaf_count=106 5744 34 323 465 178 922 185 108 182 9625
internal_value=0 -0.000339787 0.000378115 0.000270357 -0.00364481 -0.000275556 -0.000381606 0.00132604 0.00202899 -0.000265545
internal_weight=0 869.645 972.325 911.656 15.5686 854.076 802.002 52.0748 43.3198 745.693
internal_count=17872 11340 6532 6209 212 11128 10732 396 288 9810
is_linear=0
shrinkage=0.00339094


Tree=57
num_leaves=11
num_cat=0
split_feature=29 53 55 26 37 12 57 55 44 12
split_gain=11.9384 13.4014 10.5958 20.2898 20.1069 12.2648 9.48558 10.559 9.27791 11.7314
threshold=6.2693400000000007e-07 0.010381400000000001 0.0049123950000000008 0.0017533500000000001 6.1764050000000017e-05 5.9437650000000017e-07 0.012970950000000002 0.0048503750000000005 5.9938700000000002e-08 8.0959450000000008e-08
decision_type=2 2 2 2 2 2 2 2 2 2
left_child=6 2 8 4 5 -4 7 -1 -2 -10
right_child=1 -3 3 -5 -6 -7 -8 -9 9 -11
leaf_value=-0.00084417800106624584 -0.0033613343602430586 0.0014032491293034632 -0.00057086578000460153 -0.0049521472924911446 0.0027931225985473452 -0.0046882906150167219 -0.00019479206190234295 -0.0036303011234220051 0.00096520587606179398 5.360459927041193e-05
leaf_weight=58.934103538282216 7.6564803104847661 89.383544677868485 146.78167224861681 11.261710053309796 19.19382946845144 8.0874097067862731 163.10541782947257 21.399572173133492 189.94381269812584 1103.0500426823273
leaf_count=979 113 440 1510 108 71 92 2360 451 1958 9623
internal_value=0 0.000133992 5.64783e-05 -0.00069952 -0.000399946 -0.000812292 -0.00067154 -0.00162075 0.000165097 0.000188561
internal_weight=0 1575.36 1485.97 185.325 174.063 154.869 243.439 80.3337 1300.65 1292.99
internal_count=17705 13915 13475 1781 1673 1602 3790 1430 11694 11581
is_linear=0
shrinkage=0.00339094


Tree=58
num_leaves=11
num_cat=0
split_feature=29 53 29 37 16 5 6 55 40 12
split_gain=12.3633 9.77781 10.0813 14.0025 9.73373 11.1929 9.10547 9.93726 9.3067 8.71029
threshold=6.2693400000000007e-07 0.010381400000000001 7.6561350000000008e-07 4.3733100000000008e-06 2.0825450000000002e-07 1.0089900000000001e-05 0.00085650800000000007 0.0047917950000000006 1.5628200000000002e-06 8.0959450000000008e-08
decision_type=2 2 2 2 2 2 2 2 2 2
left_child=-1 2 4 -4 5 -2 -7 8 -8 -9
right_child=1 -3 3 -5 -6 6 7 9 -10 -11
leaf_value=-0.00068442136776847241 0.0023505915908114115 0.001216648060172363 -0.0031634888722077686 2.2510031881374724e-05 0.0047825159489008713 -0.002553158528185323 -0.0048783301562953085 0.0027602995381069413 0.00059216651388461442 0.00019012593645645348
leaf_weight=240.20152610586956 34.726180988363922 90.610679587349296 15.196797263342885 1338.5336051709019 6.483558014035224 11.934842659160493 6.1953222732990962 22.046382077969611 6.5369527144357562 47.240329492371529
leaf_count=3790 275 440 241 11798 18 205 118 162 74 584
internal_value=0 0.000139913 7.33148e-05 -1.45405e-05 0.000953476 0.000728342 0.000107278 0.000522735 -0.00212621 0.00103827
internal_weight=0 1579.5 1488.89 1353.73 135.164 128.68 93.9538 82.019 12.7323 69.2867
internal_count=17705 13915 13475 12039 1436 1418 1143 938 192 746
is_linear=0
shrinkage=0.00339094


Tree=59
num_leaves=11
num_cat=0
split_feature=29 29 0 33 33 41 0 0 44 8
split_gain=12.7506 11.0642 13.0353 10.534 11.2488 17.7104 12.4129 9.51887 8.64957 9.28595
threshold=6.2693400000000007e-07 7.6561350000000008e-07 4.772395000000001e-07 2.3041850000000001e-07 3.4450950000000004e-07 7.8997800000000018e-05 3.6994150000000008e-07 4.3122750000000007e-07 8.6363050000000013e-08 8.591655000000001e-08
decision_type=2 2 2 2 2 2 2 2 2 2
left_child=-1 -2 3 -3 7 -6 -7 -5 -4 -10
right_child=1 2 8 4 5 6 -8 -9 9 -11
leaf_value=-0.00069687040662411788 0.00105342756667718 0.0015363221398969696 0.0025652342476401727 -0.0020232994365252206 0.0016647229092184943 -0.00024827867192097074 -0.0021701974107572286 0.0015519652963543807 -0.0026120025002470612 0.00025011886235226855
leaf_weight=236.84625060250983 139.80161543935537 27.163996224291623 17.499946508556604 81.148146948777139 44.369816801510751 187.94283261429518 48.296778060030192 8.7213604729622585 12.289418608881531 1017.9001104007475
leaf_count=3790 1437 234 128 1223 397 2120 773 78 226 7299
internal_value=0 0.000145179 5.63255e-05 -0.000465158 -0.000616841 -0.000277701 -0.000649721 -0.00165707 0.000255126 0.000213277
internal_weight=0 1585.13 1445.33 397.643 370.479 280.609 236.24 89.8695 1047.69 1030.19
internal_count=17705 13915 12478 4825 4591 3290 2893 1301 7653 7525
is_linear=0
shrinkage=0.00339094


Tree=60
num_leaves=11
num_cat=0
split_feature=37 31 38 29 25 25 14 61 0 29
split_gain=10.7123 18.0162 16.0819 15.9012 13.746 12.9621 17.2608 14.2128 12.4399 11.4747
threshold=1.5351350000000003e-05 6.9831800000000015e-08 0.00018391850000000002 1.7895600000000002e-06 2.4757850000000002e-05 2.8877500000000003e-05 0.0028398050000000004 0.0031402050000000005 1.1558500000000003e-06 1.2868450000000001e-06
decision_type=2 2 2 2 2 2 2 2 2 2
left_child=2 3 -1 5 -3 6 7 -2 -4 -9
right_child=1 4 8 -5 -6 -7 -8 9 -10 -11
leaf_value=0.000753865789721681 -0.0045949317895494172 -0.002028766281093641 -0.00031980378973468657 0.0029114944747693364 0.00019544884503289346 -0.0029929376754283792 0.0042109940076032427 -0.0014202185234603449 -0.0021501328447312749 0.0022077216071772262
leaf_weight=158.45318492967635 5.7853169795125714 32.53722901083529 744.23325032973662 51.748863231390715 704.50805511884391 9.8631119765341264 13.946107983589171 15.740343462675808 44.737656209617853 23.986274117603898
leaf_count=1406 54 379 10294 191 4416 56 25 142 624 111
internal_value=0 0.000294916 -0.000227803 0.00150264 9.41958e-05 0.000422707 0.00103321 2.35021e-06 -0.000426423 0.000749794
internal_weight=0 858.115 947.424 121.07 737.045 69.3212 59.458 45.5119 788.971 39.7266
internal_count=17698 5374 12324 579 4795 388 332 307 10918 253
is_linear=0
shrinkage=0.00339094


Tree=61
num_leaves=11
num_cat=0
split_feature=45 38 18 56 2 25 30 41 40 19
split_gain=10.7459 17.1819 11.4344 14.0303 12.8384 12.3814 10.3667 11.7576 15.0077 15.3818
threshold=1.4085550000000002e-06 0.00021529800000000002 0.00033603000000000002 0.00068280350000000012 0.00078516750000000009 8.3895000000000016e-06 1.2008500000000002e-05 0.00020608700000000001 5.5675800000000012e-07 6.2609550000000009e-06
decision_type=2 2 2 2 2 2 2 2 2 2
left_child=1 2 4 5 -1 -4 -2 -8 -9 -10
right_child=6 -3 3 -5 -6 -7 7 8 9 -11
leaf_value=0.00048302462854057313 0.00072145341358206339 -0.0007054193724220615 0.0018520705574850301 0.0024681285033255128 -0.0013581245034896654 -0.0041006578329015279 -0.0014460218294777372 0.0036069185870120772 0.0024368259616665087 -5.0436471142954216e-05
leaf_weight=161.96391797624528 347.16580163128674 448.69883852871135 6.8767310250550491 49.393791855312884 58.637367072980851 7.5097075831145048 57.791424739174545 13.133770292624829 29.049694725312293 624.43283843714744
leaf_count=1798 2888 6575 49 373 928 133 692 53 156 4053
internal_value=0 -0.000292048 0.000357717 0.0016128 -6.07877e-06 -0.00124075 0.000240399 8.38451e-06 0.000137097 6.19138e-05
internal_weight=0 733.08 284.382 63.7802 220.601 14.3864 1071.57 724.408 666.616 653.483
internal_count=17698 9856 3281 555 2726 182 7842 4954 4262 4209
is_linear=0
shrinkage=0.00339094


Tree=62
num_leaves=11
num_cat=0
split_feature=37 31 57 25 0 25 37 38 29 46
split_gain=13.1602 20.0705 16.6697 20.3663 15.9553 12.3827 14.3962 11.8665 11.5427 11.1708
threshold=1.5351350000000003e-05 6.9831800000000015e-08 0.013359550000000001 2.7004850000000003e-05 1.1558500000000003e-06 2.4757850000000002e-05 2.0461550000000004e-05 0.00018391850000000002 1.3465800000000002e-06 4.8808450000000009e-05
decision_type=2 2 2 2 2 2 2 2 2 2
left_child=4 2 -2 8 7 6 -3 9 -4 -1
right_child=1 5 3 -5 -6 -7 -8 -9 -10 -11
leaf_value=0.00037993059130702895 0.0024049340522795744 -0.0035479634651875134 -0.0022013837996872152 -0.004777142366948546 -0.0022523776615952767 0.00020963425366038829 0.0013419233231798723 -0.0003313323826605301 0.002264364170588513 0.0033694257133297999
leaf_weight=145.04249621974304 86.585199549794197 20.553991814143959 8.2983772046864051 8.0441774614155275 42.763684415258467 705.38063526246697 9.4256582576781494 738.05370954610407 22.571123806759715 15.268362352624534
leaf_count=1351 327 308 80 62 624 4416 71 10294 110 55
internal_value=0 0.000332747 0.00158157 -0.000236558 -0.000247049 0.000117216 -0.00198294 -0.000149005 0.00100861 0.00068359
internal_weight=0 860.859 125.499 38.9137 941.128 735.36 29.9797 898.365 30.8695 160.311
internal_count=17698 5374 579 252 12324 4795 379 11700 190 1406
is_linear=0
shrinkage=0.00339094


Tree=63
num_leaves=11
num_cat=0
split_feature=36 41 37 57 18 33 12 34 1 10
split_gain=10.4973 17.8338 11.0647 10.3007 16.2834 7.81954 15.5109 12.7997 20.8504 15.841
threshold=3.5080000000000005e-06 0.0018399300000000003 0.00011060900000000001 0.014190900000000001 0.0075492650000000003 7.1062550000000009e-07 2.2586800000000002e-07 3.9286850000000001e-05 4.0420000000000003e-05 0.00098324350000000035
decision_type=2 2 2 2 2 2 2 2 2 2
left_child=1 5 -2 4 -4 6 -1 9 -9 -7
right_child=2 -3 3 -5 -6 7 -8 8 -10 -11
leaf_value=-0.00018222367733290341 0.0034439967337709949 -0.0041663842369999296 0.0023037864147941647 0.0027577743544151896 -0.0034833607605315666 0.00063346500740132342 -0.002113996980418263 -0.0029613987170808804 5.9552961016295407e-05 0.0042307190975449504
leaf_weight=833.51045742165297 18.883146991953254 11.489275095053015 8.4561126288026589 10.981424871832131 12.85386356897652 181.17834506835788 50.034607337322086 26.548819553107023 608.01057322463021 14.563714373856781
leaf_count=10751 44 138 33 31 109 1547 767 246 3940 43
internal_value=0 -0.000101461 0.00144423 0.00020323 -0.00114273 -7.19221e-05 -0.00029412 0.000163721 -6.92788e-05 0.000920016
internal_weight=0 1725.34 51.1745 32.2914 21.31 1713.85 883.545 830.301 634.559 195.742
internal_count=17649 17432 217 173 142 17294 11518 5776 4186 1590
is_linear=0
shrinkage=0.00339094


Tree=64
num_leaves=11
num_cat=0
split_feature=36 41 37 1 18 39 34 33 33 33
